<?xml version="1.0"?>
<opencv_storage>
<cascade>
  <stageType>BOOST</stageType>
  <featureType>HAAR</featureType>
  <height>24</height>
  <width>24</width>
  <stageParams>
    <boostType>GAB</boostType>
    <minHitRate>9.9500000476837158e-01</minHitRate>
    <maxFalseAlarm>5.0000000000000000e-01</maxFalseAlarm>
    <weightTrimRate>9.4999998807907104e-01</weightTrimRate>
    <maxDepth>1</maxDepth>
    <maxWeakCount>100</maxWeakCount></stageParams>
  <featureParams>
    <maxCatCount>0</maxCatCount>
    <featSize>1</featSize>
    <mode>BASIC</mode></featureParams>
  <stageNum>19</stageNum>
  <stages>
    <!-- stage 0 -->
    <_>
      <maxWeakCount>9</maxWeakCount>
      <stageThreshold>-1.9175388813018799e+00</stageThreshold>
      <weakClassifiers>
        <_>
          <internalNodes>
            0 -1 156 -1.4639064669609070e-01</internalNodes>
          <leafValues>
            6.7032968997955322e-01 -7.7637511491775513e-01</leafValues></_>
        <_>
          <internalNodes>
            0 -1 127 -1.9072635099291801e-02</internalNodes>
          <leafValues>
            4.8295414447784424e-01 -4.9525880813598633e-01</leafValues></_>
        <_>
          <internalNodes>
            0 -1 160 -5.9509642596822232e-05</internalNodes>
          <leafValues>
            -4.7831946611404419e-01 2.6824262738227844e-01</leafValues></_>
        <_>
          <internalNodes>
            0 -1 70 6.2442226335406303e-03</internalNodes>
          <leafValues>
            1.4286409318447113e-01 -8.4940427541732788e-01</leafValues></_>
        <_>
          <internalNodes>
            0 -1 214 7.9500445281155407e-05</internalNodes>
          <leafValues>
            2.4577747285366058e-01 -6.0759305953979492e-01</leafValues></_>
        <_>
          <internalNodes>
            0 -1 170 -7.5433112215250731e-04</internalNodes>
          <leafValues>
            5.5861401557922363e-01 -2.5316953659057617e-01</leafValues></_>
        <_>
          <internalNodes>
            0 -1 146 2.5096617173403502e-03</internalNodes>
          <leafValues>
            -2.4937751889228821e-01 5.8437103033065796e-01</leafValues></_>
        <_>
          <internalNodes>
            0 -1 98 -6.2467850511893630e-05</internalNodes>
          <leafValues>
            -6.5415972471237183e-01 2.2793816030025482e-01</leafValues></_>
        <_>
          <internalNodes>
            0 -1 114 -2.2883139550685883e-02</internalNodes>
          <leafValues>
            6.6140198707580566e-01 -2.3326884210109711e-01</leafValues></_></weakClassifiers></_>
    <!-- stage 1 -->
    <_>
      <maxWeakCount>10</maxWeakCount>
      <stageThreshold>-1.7237406969070435e+00</stageThreshold>
      <weakClassifiers>
        <_>
          <internalNodes>
            0 -1 88 -1.2571232393383980e-02</internalNodes>
          <leafValues>
            1.7582418024539948e-01 -8.1728881597518921e-01</leafValues></_>
        <_>
          <internalNodes>
            0 -1 122 2.8924252837896347e-02</internalNodes>
          <leafValues>
            -5.1325541734695435e-01 4.2157316207885742e-01</leafValues></_>
        <_>
          <internalNodes>
            0 -1 37 9.7345007816329598e-05</internalNodes>
          <leafValues>
            1.9601266086101532e-01 -7.0761501789093018e-01</leafValues></_>
        <_>
          <internalNodes>
            0 -1 181 3.2782293856143951e-02</internalNodes>
          <leafValues>
            -3.5616788268089294e-01 4.8327925801277161e-01</leafValues></_>
        <_>
          <internalNodes>
            0 -1 116 7.6432977803051472e-03</internalNodes>
          <leafValues>
            -2.5626292824745178e-01 5.4955387115478516e-01</leafValues></_>
        <_>
          <internalNodes>
            0 -1 84 4.0790755301713943e-03</internalNodes>
          <leafValues>
            -2.5003147125244141e-01 5.1292276382446289e-01</leafValues></_>
        <_>
          <internalNodes>
            0 -1 215 2.3866757692303509e-04</internalNodes>
          <leafValues>
            1.8881937861442566e-01 -7.3389494419097900e-01</leafValues></_>
        <_>
          <internalNodes>
            0 -1 33 -6.3181249424815178e-04</internalNodes>
          <leafValues>
            -7.2260117530822754e-01 1.5408481657505035e-01</leafValues></_>
        <_>
          <internalNodes>
            0 -1 188 -3.2256999984383583e-03</internalNodes>
          <leafValues>
            3.3902123570442200e-01 -3.6529126763343811e-01</leafValues></_>
        <_>
          <internalNodes>
            0 -1 140 9.6146005671471357e-04</internalNodes>
          <leafValues>
            -2.4891217052936554e-01 5.3550750017166138e-01</leafValues></_></weakClassifiers></_>
    <!-- stage 2 -->
    <_>
      <maxWeakCount>11</maxWeakCount>
      <stageThreshold>-1.8350534439086914e+00</stageThreshold>
      <weakClassifiers>
        <_>
          <internalNodes>
            0 -1 213 1.1830726638436317e-02</internalNodes>
          <leafValues>
            -7.6050043106079102e-01 6.2962961196899414e-01</leafValues></_>
        <_>
          <internalNodes>
            0 -1 117 1.5472432598471642e-02</internalNodes>
          <leafValues>
            -5.5761545896530151e-01 2.2248674929141998e-01</leafValues></_>
        <_>
          <internalNodes>
            0 -1 31 4.2383224354125559e-05</internalNodes>
          <leafValues>
            1.9794063270092010e-01 -5.9839707612991333e-01</leafValues></_>
        <_>
          <internalNodes>
            0 -1 76 2.8874874114990234e-03</internalNodes>
          <leafValues>
            1.7895154654979706e-01 -6.4538097381591797e-01</leafValues></_>
        <_>
          <internalNodes>
            0 -1 5 -1.0265020653605461e-02</internalNodes>
          <leafValues>
            -8.4713274240493774e-01 1.8535658717155457e-01</leafValues></_>
        <_>
          <internalNodes>
            0 -1 32 -1.6110608703456819e-04</internalNodes>
          <leafValues>
            -7.1508651971817017e-01 1.4150126278400421e-01</leafValues></_>
        <_>
          <internalNodes>
            0 -1 139 1.7627773340791464e-03</internalNodes>
          <leafValues>
            -2.9831519722938538e-01 4.7153258323669434e-01</leafValues></_>
        <_>
          <internalNodes>
            0 -1 222 3.3042850554920733e-04</internalNodes>
          <leafValues>
            2.0265005528926849e-01 -5.5567675828933716e-01</leafValues></_>
        <_>
          <internalNodes>
            0 -1 126 -1.3255108147859573e-02</internalNodes>
          <leafValues>
            4.4583159685134888e-01 -2.5475439429283142e-01</leafValues></_>
        <_>
          <internalNodes>
            0 -1 111 7.9055767855606973e-05</internalNodes>
          <leafValues>
            2.0217899978160858e-01 -5.8414065837860107e-01</leafValues></_>
        <_>
          <internalNodes>
            0 -1 147 -3.0959602445363998e-02</internalNodes>
          <leafValues>
            5.4315990209579468e-01 -2.1215111017227173e-01</leafValues></_></weakClassifiers></_>
    <!-- stage 3 -->
    <_>
      <maxWeakCount>12</maxWeakCount>
      <stageThreshold>-1.6765469312667847e+00</stageThreshold>
      <weakClassifiers>
        <_>
          <internalNodes>
            0 -1 6 -1.2625370174646378e-02</internalNodes>
          <leafValues>
            5.0691243261098862e-02 -8.2502543926239014e-01</leafValues></_>
        <_>
          <internalNodes>
            0 -1 198 4.1044048964977264e-02</internalNodes>
          <leafValues>
            -3.8013347983360291e-01 6.6547244787216187e-01</leafValues></_>
        <_>
          <internalNodes>
            0 -1 25 7.9422481358051300e-03</internalNodes>
          <leafValues>
            -2.8827875852584839e-01 3.5269373655319214e-01</leafValues></_>
        <_>
          <internalNodes>
            0 -1 224 -5.9933215379714966e-04</internalNodes>
          <leafValues>
            -4.7666665911674500e-01 2.2039027512073517e-01</leafValues></_>
        <_>
          <internalNodes>
            0 -1 227 8.2334430771879852e-05</internalNodes>
          <leafValues>
            1.7432032525539398e-01 -5.6128168106079102e-01</leafValues></_>
        <_>
          <internalNodes>
            0 -1 157 -7.1793328970670700e-04</internalNodes>
          <leafValues>
            3.4408420324325562e-01 -2.9031085968017578e-01</leafValues></_>
        <_>
          <internalNodes>
            0 -1 168 1.6883102944120765e-04</internalNodes>
          <leafValues>
            2.7202740311622620e-01 -4.4887271523475647e-01</leafValues></_>
        <_>
          <internalNodes>
            0 -1 100 4.3928301893174648e-03</internalNodes>
          <leafValues>
            1.8545693159103394e-01 -7.6458436250686646e-01</leafValues></_>
        <_>
          <internalNodes>
            0 -1 151 8.9721346739679575e-05</internalNodes>
          <leafValues>
            2.0299725234508514e-01 -4.7623831033706665e-01</leafValues></_>
        <_>
          <internalNodes>
            0 -1 218 1.3838883489370346e-02</internalNodes>
          <leafValues>
            1.1104907840490341e-01 -8.3288824558258057e-01</leafValues></_>
        <_>
          <internalNodes>
            0 -1 34 4.8644375056028366e-04</internalNodes>
          <leafValues>
            1.7461438477039337e-01 -5.0929665565490723e-01</leafValues></_>
        <_>
          <internalNodes>
            0 -1 103 -5.2926074713468552e-03</internalNodes>
          <leafValues>
            5.1951652765274048e-01 -2.0321170985698700e-01</leafValues></_></weakClassifiers></_>
    <!-- stage 4 -->
    <_>
      <maxWeakCount>9</maxWeakCount>
      <stageThreshold>-1.8551518917083740e+00</stageThreshold>
      <weakClassifiers>
        <_>
          <internalNodes>
            0 -1 10 -6.3494434580206871e-03</internalNodes>
          <leafValues>
            1.5862068533897400e-01 -7.8009480237960815e-01</leafValues></_>
        <_>
          <internalNodes>
            0 -1 66 6.1045989394187927e-02</internalNodes>
          <leafValues>
            -4.6320620179176331e-01 3.2246932387351990e-01</leafValues></_>
        <_>
          <internalNodes>
            0 -1 32 3.8223937735892832e-05</internalNodes>
          <leafValues>
            2.1199004352092743e-01 -5.5541598796844482e-01</leafValues></_>
        <_>
          <internalNodes>
            0 -1 220 -5.7517737150192261e-04</internalNodes>
          <leafValues>
            -4.8893511295318604e-01 2.0872703194618225e-01</leafValues></_>
        <_>
          <internalNodes>
            0 -1 19 -1.7392697918694466e-04</internalNodes>
          <leafValues>
            -5.9858483076095581e-01 1.7486853897571564e-01</leafValues></_>
        <_>
          <internalNodes>
            0 -1 55 -1.4979099854826927e-02</internalNodes>
          <leafValues>
            3.3197009563446045e-01 -3.7329131364822388e-01</leafValues></_>
        <_>
          <internalNodes>
            0 -1 71 -6.6601037979125977e-02</internalNodes>
          <leafValues>
            5.7072758674621582e-01 -2.4525904655456543e-01</leafValues></_>
        <_>
          <internalNodes>
            0 -1 128 1.5842420980334282e-03</internalNodes>
          <leafValues>
            -2.9862472414970398e-01 3.6157432198524475e-01</leafValues></_>
        <_>
          <internalNodes>
            0 -1 183 -9.4935391098260880e-03</internalNodes>
          <leafValues>
            3.0673459172248840e-01 -3.0137893557548523e-01</leafValues></_></weakClassifiers></_>
    <!-- stage 5 -->
    <_>
      <maxWeakCount>14</maxWeakCount>
      <stageThreshold>-1.5776885747909546e+00</stageThreshold>
      <weakClassifiers>
        <_>
          <internalNodes>
            0 -1 196 7.4544837698340416e-03</internalNodes>
          <leafValues>
            -7.5090253353118896e-01 3.4782609343528748e-01</leafValues></_>
        <_>
          <internalNodes>
            0 -1 1 -6.6779814660549164e-03</internalNodes>
          <leafValues>
            3.4524494409561157e-01 -4.3378910422325134e-01</leafValues></_>
        <_>
          <internalNodes>
            0 -1 227 -2.2552456357516348e-04</internalNodes>
          <leafValues>
            -6.1587965488433838e-01 1.5096428990364075e-01</leafValues></_>
        <_>
          <internalNodes>
            0 -1 134 -3.8014380261301994e-03</internalNodes>
          <leafValues>
            -8.3693552017211914e-01 1.0691323131322861e-01</leafValues></_>
        <_>
          <internalNodes>
            0 -1 23 7.0138703449629247e-05</internalNodes>
          <leafValues>
            1.7019721865653992e-01 -5.8512854576110840e-01</leafValues></_>
        <_>
          <internalNodes>
            0 -1 23 -5.7037530496018007e-05</internalNodes>
          <leafValues>
            -5.1482206583023071e-01 2.3863394558429718e-01</leafValues></_>
        <_>
          <internalNodes>
            0 -1 112 3.0500613152980804e-02</internalNodes>
          <leafValues>
            -2.1615760028362274e-01 4.6756371855735779e-01</leafValues></_>
        <_>
          <internalNodes>
            0 -1 136 -4.1975341737270355e-03</internalNodes>
          <leafValues>
            3.8142201304435730e-01 -2.4671444296836853e-01</leafValues></_>
        <_>
          <internalNodes>
            0 -1 190 1.5411921776831150e-03</internalNodes>
          <leafValues>
            -2.5528490543365479e-01 3.8142198324203491e-01</leafValues></_>
        <_>
          <internalNodes>
            0 -1 203 9.3780021416023374e-05</internalNodes>
          <leafValues>
            2.2087684273719788e-01 -4.0364187955856323e-01</leafValues></_>
        <_>
          <internalNodes>
            0 -1 57 -1.0405967384576797e-01</internalNodes>
          <leafValues>
            3.3751901984214783e-01 -2.8476837277412415e-01</leafValues></_>
        <_>
          <internalNodes>
            0 -1 4 -1.1713354615494609e-04</internalNodes>
          <leafValues>
            -4.2524096369743347e-01 2.4394193291664124e-01</leafValues></_>
        <_>
          <internalNodes>
            0 -1 62 -1.1955765075981617e-02</internalNodes>
          <leafValues>
            5.4299175739288330e-01 -1.8338681757450104e-01</leafValues></_>
        <_>
          <internalNodes>
            0 -1 179 -1.4751584967598319e-03</internalNodes>
          <leafValues>
            4.7552716732025146e-01 -1.9053024053573608e-01</leafValues></_></weakClassifiers></_>
    <!-- stage 6 -->
    <_>
      <maxWeakCount>13</maxWeakCount>
      <stageThreshold>-1.6443440914154053e+00</stageThreshold>
      <weakClassifiers>
        <_>
          <internalNodes>
            0 -1 195 1.8009223043918610e-02</internalNodes>
          <leafValues>
            -7.5802016258239746e-01 2.4770642817020416e-01</leafValues></_>
        <_>
          <internalNodes>
            0 -1 52 1.0722787119448185e-02</internalNodes>
          <leafValues>
            -5.0857383012771606e-01 2.4447700381278992e-01</leafValues></_>
        <_>
          <internalNodes>
            0 -1 162 1.6944634262472391e-04</internalNodes>
          <leafValues>
            2.0919047296047211e-01 -5.1427060365676880e-01</leafValues></_>
        <_>
          <internalNodes>
            0 -1 5 2.3974943906068802e-03</internalNodes>
          <leafValues>
            2.7486720681190491e-01 -4.0013992786407471e-01</leafValues></_>
        <_>
          <internalNodes>
            0 -1 83 -5.0965184345841408e-03</internalNodes>
          <leafValues>
            3.5465505719184875e-01 -2.6300457119941711e-01</leafValues></_>
        <_>
          <internalNodes>
            0 -1 64 1.9904010696336627e-04</internalNodes>
          <leafValues>
            2.7467015385627747e-01 -3.8718870282173157e-01</leafValues></_>
        <_>
          <internalNodes>
            0 -1 155 -5.2558141760528088e-04</internalNodes>
          <leafValues>
            4.0017399191856384e-01 -2.3396134376525879e-01</leafValues></_>
        <_>
          <internalNodes>
            0 -1 131 -5.7364828535355628e-05</internalNodes>
          <leafValues>
            -3.8737347722053528e-01 2.1976768970489502e-01</leafValues></_>
        <_>
          <internalNodes>
            0 -1 142 -2.5930765550583601e-03</internalNodes>
          <leafValues>
            3.9481988549232483e-01 -2.4759337306022644e-01</leafValues></_>
        <_>
          <internalNodes>
            0 -1 217 1.4065869152545929e-02</internalNodes>
          <leafValues>
            1.2720340490341187e-01 -7.0182424783706665e-01</leafValues></_>
        <_>
          <internalNodes>
            0 -1 148 1.2263047392480075e-04</internalNodes>
          <leafValues>
            -3.1923636794090271e-01 2.9273924231529236e-01</leafValues></_>
        <_>
          <internalNodes>
            0 -1 152 -1.2900335423182696e-04</internalNodes>
          <leafValues>
            -5.2775037288665771e-01 1.6578537225723267e-01</leafValues></_>
        <_>
          <internalNodes>
            0 -1 78 1.2097459286451340e-02</internalNodes>
          <leafValues>
            -1.8373917043209076e-01 4.7311073541641235e-01</leafValues></_></weakClassifiers></_>
    <!-- stage 7 -->
    <_>
      <maxWeakCount>12</maxWeakCount>
      <stageThreshold>-1.4379020929336548e+00</stageThreshold>
      <weakClassifiers>
        <_>
          <internalNodes>
            0 -1 210 1.0327144525945187e-02</internalNodes>
          <leafValues>
            -7.4931383132934570e-01 1.7757008969783783e-01</leafValues></_>
        <_>
          <internalNodes>
            0 -1 138 1.2425003573298454e-02</internalNodes>
          <leafValues>
            -4.6356180310249329e-01 2.2636175155639648e-01</leafValues></_>
        <_>
          <internalNodes>
            0 -1 225 7.7033313573338091e-05</internalNodes>
          <leafValues>
            2.2317862510681152e-01 -4.2715510725975037e-01</leafValues></_>
        <_>
          <internalNodes>
            0 -1 204 -1.2851072242483497e-03</internalNodes>
          <leafValues>
            -9.2313545942306519e-01 8.6695574223995209e-02</leafValues></_>
        <_>
          <internalNodes>
            0 -1 141 2.8776258695870638e-03</internalNodes>
          <leafValues>
            -2.1738556027412415e-01 3.8523340225219727e-01</leafValues></_>
        <_>
          <internalNodes>
            0 -1 120 1.3275985838845372e-04</internalNodes>
          <leafValues>
            1.3755580782890320e-01 -6.0566282272338867e-01</leafValues></_>
        <_>
          <internalNodes>
            0 -1 9 -7.8979423269629478e-03</internalNodes>
          <leafValues>
            -8.1065493822097778e-01 1.0153197497129440e-01</leafValues></_>
        <_>
          <internalNodes>
            0 -1 143 -3.9136793930083513e-04</internalNodes>
          <leafValues>
            -6.8379974365234375e-01 1.1038971692323685e-01</leafValues></_>
        <_>
          <internalNodes>
            0 -1 30 9.8198733758181334e-04</internalNodes>
          <leafValues>
            -1.7642378807067871e-01 4.7544115781784058e-01</leafValues></_>
        <_>
          <internalNodes>
            0 -1 45 -9.8221100866794586e-02</internalNodes>
          <leafValues>
            3.7635648250579834e-01 -2.0772396028041840e-01</leafValues></_>
        <_>
          <internalNodes>
            0 -1 163 -5.7730885600904003e-05</internalNodes>
          <leafValues>
            -4.2407673597335815e-01 1.8065643310546875e-01</leafValues></_>
        <_>
          <internalNodes>
            0 -1 89 -1.1042482219636440e-03</internalNodes>
          <leafValues>
            3.3068814873695374e-01 -2.4694204330444336e-01</leafValues></_></weakClassifiers></_>
    <!-- stage 8 -->
    <_>
      <maxWeakCount>13</maxWeakCount>
      <stageThreshold>-1.5800809860229492e+00</stageThreshold>
      <weakClassifiers>
        <_>
          <internalNodes>
            0 -1 212 1.5067176893353462e-02</internalNodes>
          <leafValues>
            -7.5912410020828247e-01 3.0769231915473938e-01</leafValues></_>
        <_>
          <internalNodes>
            0 -1 135 -6.3675921410322189e-03</internalNodes>
          <leafValues>
            3.3649733662605286e-01 -4.3252953886985779e-01</leafValues></_>
        <_>
          <internalNodes>
            0 -1 228 -7.1067166572902352e-05</internalNodes>
          <leafValues>
            -6.1303788423538208e-01 1.3421793282032013e-01</leafValues></_>
        <_>
          <internalNodes>
            0 -1 208 -1.1999926064163446e-03</internalNodes>
          <leafValues>
            4.3495416641235352e-01 -2.5949665904045105e-01</leafValues></_>
        <_>
          <internalNodes>
            0 -1 21 -2.4671008577570319e-04</internalNodes>
          <leafValues>
            -7.3505705595016479e-01 1.6652524471282959e-01</leafValues></_>
        <_>
          <internalNodes>
            0 -1 221 -3.9698534237686545e-05</internalNodes>
          <leafValues>
            -4.5018798112869263e-01 1.6774611175060272e-01</leafValues></_>
        <_>
          <internalNodes>
            0 -1 214 -2.0018499344587326e-03</internalNodes>
          <leafValues>
            -1. 8.0910019576549530e-02</leafValues></_>
        <_>
          <internalNodes>
            0 -1 24 -1.0949072241783142e-01</internalNodes>
          <leafValues>
            6.7027497291564941e-01 -1.2897759675979614e-01</leafValues></_>
        <_>
          <internalNodes>
            0 -1 65 3.9121555164456367e-03</internalNodes>
          <leafValues>
            -2.8601908683776855e-01 2.8578564524650574e-01</leafValues></_>
        <_>
          <internalNodes>
            0 -1 86 8.3108851686120033e-04</internalNodes>
          <leafValues>
            2.2779691219329834e-01 -3.8751459121704102e-01</leafValues></_>
        <_>
          <internalNodes>
            0 -1 92 2.9777549207210541e-03</internalNodes>
          <leafValues>
            -2.7836751937866211e-01 3.4256088733673096e-01</leafValues></_>
        <_>
          <internalNodes>
            0 -1 149 -1.2905730400234461e-03</internalNodes>
          <leafValues>
            4.5927220582962036e-01 -1.7016483843326569e-01</leafValues></_>
        <_>
          <internalNodes>
            0 -1 28 -1.4298794558271766e-03</internalNodes>
          <leafValues>
            -8.8994181156158447e-01 8.9957579970359802e-02</leafValues></_></weakClassifiers></_>
    <!-- stage 9 -->
    <_>
      <maxWeakCount>15</maxWeakCount>
      <stageThreshold>-1.4409863948822021e+00</stageThreshold>
      <weakClassifiers>
        <_>
          <internalNodes>
            0 -1 11 -4.0852632373571396e-03</internalNodes>
          <leafValues>
            -4.2253520339727402e-02 -8.0141842365264893e-01</leafValues></_>
        <_>
          <internalNodes>
            0 -1 36 -8.9223403483629227e-03</internalNodes>
          <leafValues>
            1.1875249445438385e-01 -5.3486037254333496e-01</leafValues></_>
        <_>
          <internalNodes>
            0 -1 106 3.3480974379926920e-03</internalNodes>
          <leafValues>
            -3.7589329481124878e-01 2.6901051402091980e-01</leafValues></_>
        <_>
          <internalNodes>
            0 -1 194 2.7697635814547539e-03</internalNodes>
          <leafValues>
            -2.8991901874542236e-01 2.9662248492240906e-01</leafValues></_>
        <_>
          <internalNodes>
            0 -1 219 4.2074788361787796e-03</internalNodes>
          <leafValues>
            1.4367301762104034e-01 -7.8291851282119751e-01</leafValues></_>
        <_>
          <internalNodes>
            0 -1 81 1.6933809965848923e-02</internalNodes>
          <leafValues>
            -2.8537604212760925e-01 2.6744404435157776e-01</leafValues></_>
        <_>
          <internalNodes>
            0 -1 26 7.8304126858711243e-02</internalNodes>
          <leafValues>
            7.7664293348789215e-02 -8.3387041091918945e-01</leafValues></_>
        <_>
          <internalNodes>
            0 -1 104 -1.4171263575553894e-01</internalNodes>
          <leafValues>
            5.3581809997558594e-01 -1.6419172286987305e-01</leafValues></_>
        <_>
          <internalNodes>
            0 -1 93 8.6350813508033752e-03</internalNodes>
          <leafValues>
            -2.9602932929992676e-01 2.4623084068298340e-01</leafValues></_>
        <_>
          <internalNodes>
            0 -1 16 3.4079933166503906e-01</internalNodes>
          <leafValues>
            1.0019108653068542e-01 -8.3269786834716797e-01</leafValues></_>
        <_>
          <internalNodes>
            0 -1 41 -1.5587918460369110e-04</internalNodes>
          <leafValues>
            -5.0787979364395142e-01 1.2279135733842850e-01</leafValues></_>
        <_>
          <internalNodes>
            0 -1 191 -1.2293765321373940e-03</internalNodes>
          <leafValues>
            -6.4625000953674316e-01 9.9376536905765533e-02</leafValues></_>
        <_>
          <internalNodes>
            0 -1 148 5.9242942370474339e-04</internalNodes>
          <leafValues>
            -2.1790193021297455e-01 3.3759948611259460e-01</leafValues></_>
        <_>
          <internalNodes>
            0 -1 130 -1.4545445446856320e-04</internalNodes>
          <leafValues>
            -4.2615115642547607e-01 1.8191097676753998e-01</leafValues></_>
        <_>
          <internalNodes>
            0 -1 154 8.4699108265340328e-04</internalNodes>
          <leafValues>
            -2.4352300167083740e-01 3.5592913627624512e-01</leafValues></_></weakClassifiers></_>
    <!-- stage 10 -->
    <_>
      <maxWeakCount>16</maxWeakCount>
      <stageThreshold>-1.6469179391860962e+00</stageThreshold>
      <weakClassifiers>
        <_>
          <internalNodes>
            0 -1 205 6.8500526249408722e-03</internalNodes>
          <leafValues>
            -8.3237659931182861e-01 -2.2796352207660675e-01</leafValues></_>
        <_>
          <internalNodes>
            0 -1 90 2.5210398435592651e-01</internalNodes>
          <leafValues>
            -4.1757178306579590e-01 3.3678933978080750e-01</leafValues></_>
        <_>
          <internalNodes>
            0 -1 74 -5.1677599549293518e-03</internalNodes>
          <leafValues>
            2.6432237029075623e-01 -2.9222881793975830e-01</leafValues></_>
        <_>
          <internalNodes>
            0 -1 153 3.4515687730163336e-05</internalNodes>
          <leafValues>
            2.3826700448989868e-01 -4.6050602197647095e-01</leafValues></_>
        <_>
          <internalNodes>
            0 -1 108 1.2659531421377324e-05</internalNodes>
          <leafValues>
            -2.9853394627571106e-01 2.6431864500045776e-01</leafValues></_>
        <_>
          <internalNodes>
            0 -1 174 6.1635747551918030e-03</internalNodes>
          <leafValues>
            -1.7055654525756836e-01 4.5713907480239868e-01</leafValues></_>
        <_>
          <internalNodes>
            0 -1 56 -5.7573977392166853e-04</internalNodes>
          <leafValues>
            3.2866200804710388e-01 -2.1220181882381439e-01</leafValues></_>
        <_>
          <internalNodes>
            0 -1 206 -1.4553850633092225e-04</internalNodes>
          <leafValues>
            -3.8977673649787903e-01 1.9484408199787140e-01</leafValues></_>
        <_>
          <internalNodes>
            0 -1 192 7.1050878614187241e-04</internalNodes>
          <leafValues>
            -1.8309259414672852e-01 4.6924635767936707e-01</leafValues></_>
        <_>
          <internalNodes>
            0 -1 76 -1.6532510053366423e-03</internalNodes>
          <leafValues>
            -4.5298030972480774e-01 1.6060808300971985e-01</leafValues></_>
        <_>
          <internalNodes>
            0 -1 51 2.9208622436271980e-05</internalNodes>
          <leafValues>
            1.5938356518745422e-01 -4.5107215642929077e-01</leafValues></_>
        <_>
          <internalNodes>
            0 -1 82 1.2260230723768473e-03</internalNodes>
          <leafValues>
            -2.3549419641494751e-01 3.2504490017890930e-01</leafValues></_>
        <_>
          <internalNodes>
            0 -1 0 2.4908527266234159e-03</internalNodes>
          <leafValues>
            1.0604353249073029e-01 -7.5498229265213013e-01</leafValues></_>
        <_>
          <internalNodes>
            0 -1 186 -6.1317899962887168e-05</internalNodes>
          <leafValues>
            2.5643017888069153e-01 -2.8055638074874878e-01</leafValues></_>
        <_>
          <internalNodes>
            0 -1 80 5.8403909206390381e-03</internalNodes>
          <leafValues>
            -1.5490256249904633e-01 4.7709214687347412e-01</leafValues></_>
        <_>
          <internalNodes>
            0 -1 111 -3.1007541110739112e-05</internalNodes>
          <leafValues>
            -4.3354874849319458e-01 1.7856003344058990e-01</leafValues></_></weakClassifiers></_>
    <!-- stage 11 -->
    <_>
      <maxWeakCount>16</maxWeakCount>
      <stageThreshold>-1.4695391654968262e+00</stageThreshold>
      <weakClassifiers>
        <_>
          <internalNodes>
            0 -1 207 1.6899196431040764e-02</internalNodes>
          <leafValues>
            -7.6525819301605225e-01 1.1111111193895340e-01</leafValues></_>
        <_>
          <internalNodes>
            0 -1 13 -2.1499339491128922e-03</internalNodes>
          <leafValues>
            1.8029075860977173e-01 -4.7486701607704163e-01</leafValues></_>
        <_>
          <internalNodes>
            0 -1 22 -3.3791693567764014e-05</internalNodes>
          <leafValues>
            -5.0129371881484985e-01 1.4199824631214142e-01</leafValues></_>
        <_>
          <internalNodes>
            0 -1 199 -1.8117047147825360e-03</internalNodes>
          <leafValues>
            -7.9990798234939575e-01 1.2508647143840790e-01</leafValues></_>
        <_>
          <internalNodes>
            0 -1 109 1.0478807613253593e-02</internalNodes>
          <leafValues>
            -2.7499884366989136e-01 2.8713908791542053e-01</leafValues></_>
        <_>
          <internalNodes>
            0 -1 44 5.3313723765313625e-03</internalNodes>
          <leafValues>
            1.2974846363067627e-01 -7.1710151433944702e-01</leafValues></_>
        <_>
          <internalNodes>
            0 -1 3 -1.9730343774426728e-04</internalNodes>
          <leafValues>
            -4.1899931430816650e-01 1.2690144777297974e-01</leafValues></_>
        <_>
          <internalNodes>
            0 -1 118 -9.6239466220140457e-03</internalNodes>
          <leafValues>
            5.5331838130950928e-01 -1.2573899328708649e-01</leafValues></_>
        <_>
          <internalNodes>
            0 -1 73 -1.4611036749556661e-03</internalNodes>
          <leafValues>
            -8.1227487325668335e-01 1.0234174877405167e-01</leafValues></_>
        <_>
          <internalNodes>
            0 -1 172 -3.8421412464231253e-03</internalNodes>
          <leafValues>
            -7.4584597349166870e-01 7.4837125837802887e-02</leafValues></_>
        <_>
          <internalNodes>
            0 -1 46 4.0440881252288818e-01</internalNodes>
          <leafValues>
            5.8259226381778717e-02 -9.0158593654632568e-01</leafValues></_>
        <_>
          <internalNodes>
            0 -1 50 7.0273823803290725e-04</internalNodes>
          <leafValues>
            -2.8204056620597839e-01 2.3503980040550232e-01</leafValues></_>
        <_>
          <internalNodes>
            0 -1 167 -1.3031454291194677e-03</internalNodes>
          <leafValues>
            3.4571975469589233e-01 -2.4825304746627808e-01</leafValues></_>
        <_>
          <internalNodes>
            0 -1 63 1.9289895892143250e-02</internalNodes>
          <leafValues>
            -9.7419261932373047e-02 7.0954859256744385e-01</leafValues></_>
        <_>
          <internalNodes>
            0 -1 180 -1.0878979082917795e-05</internalNodes>
          <leafValues>
            2.6843804121017456e-01 -2.9630473256111145e-01</leafValues></_>
        <_>
          <internalNodes>
            0 -1 54 1.5645036473870277e-03</internalNodes>
          <leafValues>
            -1.5200199186801910e-01 4.9474906921386719e-01</leafValues></_></weakClassifiers></_>
    <!-- stage 12 -->
    <_>
      <maxWeakCount>17</maxWeakCount>
      <stageThreshold>-1.6502332687377930e+00</stageThreshold>
      <weakClassifiers>
        <_>
          <internalNodes>
            0 -1 7 -3.2572597265243530e-02</internalNodes>
          <leafValues>
            8.0645158886909485e-02 -7.5278812646865845e-01</leafValues></_>
        <_>
          <internalNodes>
            0 -1 115 1.6667343676090240e-01</internalNodes>
          <leafValues>
            -4.2544373869895935e-01 2.7106893062591553e-01</leafValues></_>
        <_>
          <internalNodes>
            0 -1 125 3.6495579406619072e-03</internalNodes>
          <leafValues>
            1.0704467445611954e-01 -7.1893817186355591e-01</leafValues></_>
        <_>
          <internalNodes>
            0 -1 47 -1.0849668178707361e-03</internalNodes>
          <leafValues>
            5.1582038402557373e-01 -1.4216972887516022e-01</leafValues></_>
        <_>
          <internalNodes>
            0 -1 177 -5.6297471746802330e-03</internalNodes>
          <leafValues>
            -5.9984368085861206e-01 1.3809891045093536e-01</leafValues></_>
        <_>
          <internalNodes>
            0 -1 222 2.5713274953886867e-04</internalNodes>
          <leafValues>
            1.3570185005664825e-01 -4.8160159587860107e-01</leafValues></_>
        <_>
          <internalNodes>
            0 -1 223 -5.7695368013810366e-05</internalNodes>
          <leafValues>
            -3.1578224897384644e-01 2.3026540875434875e-01</leafValues></_>
        <_>
          <internalNodes>
            0 -1 173 -3.5448180278763175e-04</internalNodes>
          <leafValues>
            3.6414620280265808e-01 -2.1516720950603485e-01</leafValues></_>
        <_>
          <internalNodes>
            0 -1 107 -1.1243756162002683e-03</internalNodes>
          <leafValues>
            2.7397468686103821e-01 -2.6794445514678955e-01</leafValues></_>
        <_>
          <internalNodes>
            0 -1 77 -1.5479343710467219e-04</internalNodes>
          <leafValues>
            -4.3652763962745667e-01 1.6861383616924286e-01</leafValues></_>
        <_>
          <internalNodes>
            0 -1 202 1.3139963266439736e-04</internalNodes>
          <leafValues>
            -1.9710186123847961e-01 3.7108841538429260e-01</leafValues></_>
        <_>
          <internalNodes>
            0 -1 158 -1.0120328515768051e-03</internalNodes>
          <leafValues>
            3.3806586265563965e-01 -2.1145166456699371e-01</leafValues></_>
        <_>
          <internalNodes>
            0 -1 18 -1.9804379553534091e-04</internalNodes>
          <leafValues>
            -4.3171745538711548e-01 1.8312932550907135e-01</leafValues></_>
        <_>
          <internalNodes>
            0 -1 96 -1.2390455231070518e-02</internalNodes>
          <leafValues>
            6.0048645734786987e-01 -1.2802314758300781e-01</leafValues></_>
        <_>
          <internalNodes>
            0 -1 61 1.0419777594506741e-02</internalNodes>
          <leafValues>
            -6.9618307054042816e-02 8.9454412460327148e-01</leafValues></_>
        <_>
          <internalNodes>
            0 -1 40 1.5592327690683305e-04</internalNodes>
          <leafValues>
            1.5192146599292755e-01 -5.6142044067382813e-01</leafValues></_>
        <_>
          <internalNodes>
            0 -1 72 1.0946355760097504e-02</internalNodes>
          <leafValues>
            -2.2127194702625275e-01 3.9643350243568420e-01</leafValues></_></weakClassifiers></_>
    <!-- stage 13 -->
    <_>
      <maxWeakCount>14</maxWeakCount>
      <stageThreshold>-1.4114650487899780e+00</stageThreshold>
      <weakClassifiers>
        <_>
          <internalNodes>
            0 -1 161 -1.4606985449790955e-01</internalNodes>
          <leafValues>
            7.0212763547897339e-01 -7.2246313095092773e-01</leafValues></_>
        <_>
          <internalNodes>
            0 -1 91 1.6983017325401306e-01</internalNodes>
          <leafValues>
            -4.0015518665313721e-01 4.6204203367233276e-01</leafValues></_>
        <_>
          <internalNodes>
            0 -1 123 5.6581739045213908e-05</internalNodes>
          <leafValues>
            1.7822234332561493e-01 -4.3623316287994385e-01</leafValues></_>
        <_>
          <internalNodes>
            0 -1 121 -3.5163603024557233e-04</internalNodes>
          <leafValues>
            -3.5058540105819702e-01 2.3313356935977936e-01</leafValues></_>
        <_>
          <internalNodes>
            0 -1 85 -5.9569836594164371e-04</internalNodes>
          <leafValues>
            3.6788877844810486e-01 -2.3716083168983459e-01</leafValues></_>
        <_>
          <internalNodes>
            0 -1 166 6.2264487496577203e-05</internalNodes>
          <leafValues>
            1.5563078224658966e-01 -4.9563217163085938e-01</leafValues></_>
        <_>
          <internalNodes>
            0 -1 113 8.9603886008262634e-03</internalNodes>
          <leafValues>
            -1.6547136008739471e-01 4.6553620696067810e-01</leafValues></_>
        <_>
          <internalNodes>
            0 -1 175 3.1134411983657628e-05</internalNodes>
          <leafValues>
            1.9479064643383026e-01 -4.4649446010589600e-01</leafValues></_>
        <_>
          <internalNodes>
            0 -1 129 -1.3165280688554049e-03</internalNodes>
          <leafValues>
            4.5155540108680725e-01 -1.9481146335601807e-01</leafValues></_>
        <_>
          <internalNodes>
            0 -1 132 -5.5947020882740617e-05</internalNodes>
          <leafValues>
            -4.2303693294525146e-01 1.9188427925109863e-01</leafValues></_>
        <_>
          <internalNodes>
            0 -1 193 1.0570986196398735e-03</internalNodes>
          <leafValues>
            -2.1141678094863892e-01 3.4021010994911194e-01</leafValues></_>
        <_>
          <internalNodes>
            0 -1 182 -2.3455986229237169e-04</internalNodes>
          <leafValues>
            3.3129128813743591e-01 -2.2906453907489777e-01</leafValues></_>
        <_>
          <internalNodes>
            0 -1 201 5.1709976105485111e-05</internalNodes>
          <leafValues>
            1.5336167812347412e-01 -4.8842397332191467e-01</leafValues></_>
        <_>
          <internalNodes>
            0 -1 137 5.6507345288991928e-04</internalNodes>
          <leafValues>
            -1.9458475708961487e-01 3.7417581677436829e-01</leafValues></_></weakClassifiers></_>
    <!-- stage 14 -->
    <_>
      <maxWeakCount>14</maxWeakCount>
      <stageThreshold>-1.5019494295120239e+00</stageThreshold>
      <weakClassifiers>
        <_>
          <internalNodes>
            0 -1 197 6.0833405703306198e-02</internalNodes>
          <leafValues>
            -7.5299537181854248e-01 1.4782609045505524e-01</leafValues></_>
        <_>
          <internalNodes>
            0 -1 2 -2.1722016390413046e-03</internalNodes>
          <leafValues>
            2.4347579479217529e-01 -4.1636350750923157e-01</leafValues></_>
        <_>
          <internalNodes>
            0 -1 17 -3.7905829231021926e-05</internalNodes>
          <leafValues>
            -4.2425739765167236e-01 1.8107216060161591e-01</leafValues></_>
        <_>
          <internalNodes>
            0 -1 105 7.8039558138698339e-04</internalNodes>
          <leafValues>
            -2.4247531592845917e-01 2.9703497886657715e-01</leafValues></_>
        <_>
          <internalNodes>
            0 -1 39 -1.8736802041530609e-02</internalNodes>
          <leafValues>
            5.5642002820968628e-01 -1.0655707120895386e-01</leafValues></_>
        <_>
          <internalNodes>
            0 -1 216 -8.6574745364487171e-04</internalNodes>
          <leafValues>
            -7.9147320985794067e-01 1.0730831325054169e-01</leafValues></_>
        <_>
          <internalNodes>
            0 -1 99 3.2038737554103136e-03</internalNodes>
          <leafValues>
            6.4571321010589600e-02 -7.3258763551712036e-01</leafValues></_>
        <_>
          <internalNodes>
            0 -1 200 4.1098881047219038e-04</internalNodes>
          <leafValues>
            1.1287366598844528e-01 -6.5266382694244385e-01</leafValues></_>
        <_>
          <internalNodes>
            0 -1 58 1.9908854737877846e-03</internalNodes>
          <leafValues>
            -2.5183683633804321e-01 2.8211542963981628e-01</leafValues></_>
        <_>
          <internalNodes>
            0 -1 27 -1.0562252718955278e-03</internalNodes>
          <leafValues>
            2.9152482748031616e-01 -2.5970858335494995e-01</leafValues></_>
        <_>
          <internalNodes>
            0 -1 110 -7.8599354310426861e-05</internalNodes>
          <leafValues>
            -3.3410009741783142e-01 2.5546395778656006e-01</leafValues></_>
        <_>
          <internalNodes>
            0 -1 150 2.8341547586023808e-03</internalNodes>
          <leafValues>
            -1.7530019581317902e-01 4.5100453495979309e-01</leafValues></_>
        <_>
          <internalNodes>
            0 -1 68 -2.0881030708551407e-02</internalNodes>
          <leafValues>
            4.5338854193687439e-01 -1.7120705544948578e-01</leafValues></_>
        <_>
          <internalNodes>
            0 -1 79 -9.0359356254339218e-03</internalNodes>
          <leafValues>
            5.1001554727554321e-01 -1.4037962257862091e-01</leafValues></_></weakClassifiers></_>
    <!-- stage 15 -->
    <_>
      <maxWeakCount>15</maxWeakCount>
      <stageThreshold>-1.5914041996002197e+00</stageThreshold>
      <weakClassifiers>
        <_>
          <internalNodes>
            0 -1 178 -1.6788163781166077e-01</internalNodes>
          <leafValues>
            1.8518517911434174e-01 -7.5091576576232910e-01</leafValues></_>
        <_>
          <internalNodes>
            0 -1 14 1.9850760698318481e-01</internalNodes>
          <leafValues>
            -3.5610413551330566e-01 4.5987364649772644e-01</leafValues></_>
        <_>
          <internalNodes>
            0 -1 12 2.0920429378747940e-03</internalNodes>
          <leafValues>
            -2.3026718199253082e-01 4.1555249691009521e-01</leafValues></_>
        <_>
          <internalNodes>
            0 -1 43 8.5945744067430496e-03</internalNodes>
          <leafValues>
            1.1535658687353134e-01 -8.3135074377059937e-01</leafValues></_>
        <_>
          <internalNodes>
            0 -1 53 2.1090643713250756e-04</internalNodes>
          <leafValues>
            2.5137272477149963e-01 -3.5273075103759766e-01</leafValues></_>
        <_>
          <internalNodes>
            0 -1 22 6.5199303207919002e-05</internalNodes>
          <leafValues>
            1.6664509475231171e-01 -4.8358455300331116e-01</leafValues></_>
        <_>
          <internalNodes>
            0 -1 187 -1.8051103688776493e-03</internalNodes>
          <leafValues>
            -9.6013224124908447e-01 9.3368947505950928e-02</leafValues></_>
        <_>
          <internalNodes>
            0 -1 159 1.6884807497262955e-02</internalNodes>
          <leafValues>
            -1.7766818404197693e-01 5.1803839206695557e-01</leafValues></_>
        <_>
          <internalNodes>
            0 -1 189 -4.8018703237175941e-03</internalNodes>
          <leafValues>
            3.5980853438377380e-01 -2.5573638081550598e-01</leafValues></_>
        <_>
          <internalNodes>
            0 -1 209 -1.6511495923623443e-03</internalNodes>
          <leafValues>
            4.7574427723884583e-01 -1.8522803485393524e-01</leafValues></_>
        <_>
          <internalNodes>
            0 -1 176 5.4518424440175295e-04</internalNodes>
          <leafValues>
            1.8018107116222382e-01 -5.2451103925704956e-01</leafValues></_>
        <_>
          <internalNodes>
            0 -1 185 2.7098963619209826e-04</internalNodes>
          <leafValues>
            2.1740166842937469e-01 -4.0550437569618225e-01</leafValues></_>
        <_>
          <internalNodes>
            0 -1 69 -9.0037001064047217e-04</internalNodes>
          <leafValues>
            5.8653181791305542e-01 -1.5662957727909088e-01</leafValues></_>
        <_>
          <internalNodes>
            0 -1 59 -9.3442071229219437e-03</internalNodes>
          <leafValues>
            7.3238760232925415e-01 -1.3076460361480713e-01</leafValues></_>
        <_>
          <internalNodes>
            0 -1 67 -2.8531696443678811e-05</internalNodes>
          <leafValues>
            -3.6505526304244995e-01 2.8263396024703979e-01</leafValues></_></weakClassifiers></_>
    <!-- stage 16 -->
    <_>
      <maxWeakCount>12</maxWeakCount>
      <stageThreshold>-1.3263087272644043e+00</stageThreshold>
      <weakClassifiers>
        <_>
          <internalNodes>
            0 -1 8 -2.6827650144696236e-02</internalNodes>
          <leafValues>
            1.9444444775581360e-01 -7.8409093618392944e-01</leafValues></_>
        <_>
          <internalNodes>
            0 -1 211 9.7593963146209717e-03</internalNodes>
          <leafValues>
            -3.4586602449417114e-01 6.7670232057571411e-01</leafValues></_>
        <_>
          <internalNodes>
            0 -1 229 -8.2732411101460457e-05</internalNodes>
          <leafValues>
            -4.6396058797836304e-01 2.2898504137992859e-01</leafValues></_>
        <_>
          <internalNodes>
            0 -1 38 -1.2881465409009252e-05</internalNodes>
          <leafValues>
            4.0406402945518494e-01 -2.2858327627182007e-01</leafValues></_>
        <_>
          <internalNodes>
            0 -1 164 -1.8089439254254103e-04</internalNodes>
          <leafValues>
            -4.0270233154296875e-01 2.7293267846107483e-01</leafValues></_>
        <_>
          <internalNodes>
            0 -1 124 -2.0928820595145226e-03</internalNodes>
          <leafValues>
            5.2026385068893433e-01 -2.0974560081958771e-01</leafValues></_>
        <_>
          <internalNodes>
            0 -1 133 -4.2083915323019028e-03</internalNodes>
          <leafValues>
            5.5050879716873169e-01 -2.3455108702182770e-01</leafValues></_>
        <_>
          <internalNodes>
            0 -1 94 -1.5102012548595667e-04</internalNodes>
          <leafValues>
            -3.9512947201728821e-01 3.1505706906318665e-01</leafValues></_>
        <_>
          <internalNodes>
            0 -1 169 -5.3699238924309611e-04</internalNodes>
          <leafValues>
            5.3255373239517212e-01 -2.4596703052520752e-01</leafValues></_>
        <_>
          <internalNodes>
            0 -1 75 2.1113574504852295e-02</internalNodes>
          <leafValues>
            -2.1029011905193329e-01 6.3645851612091064e-01</leafValues></_>
        <_>
          <internalNodes>
            0 -1 49 -6.3245235942304134e-03</internalNodes>
          <leafValues>
            6.1328250169754028e-01 -1.7516303062438965e-01</leafValues></_>
        <_>
          <internalNodes>
            0 -1 119 3.4543343645054847e-05</internalNodes>
          <leafValues>
            3.0343565344810486e-01 -4.7823581099510193e-01</leafValues></_></weakClassifiers></_>
    <!-- stage 17 -->
    <_>
      <maxWeakCount>10</maxWeakCount>
      <stageThreshold>-1.3910779953002930e+00</stageThreshold>
      <weakClassifiers>
        <_>
          <internalNodes>
            0 -1 15 -6.7414000630378723e-02</internalNodes>
          <leafValues>
            1. -7.4216026067733765e-01</leafValues></_>
        <_>
          <internalNodes>
            0 -1 20 5.1305539906024933e-02</internalNodes>
          <leafValues>
            -3.9081779122352600e-01 7.4849694967269897e-01</leafValues></_>
        <_>
          <internalNodes>
            0 -1 226 -3.4584845707286149e-05</internalNodes>
          <leafValues>
            -4.8017558455467224e-01 3.3828270435333252e-01</leafValues></_>
        <_>
          <internalNodes>
            0 -1 87 1.0394497076049447e-04</internalNodes>
          <leafValues>
            -3.2686054706573486e-01 5.4547494649887085e-01</leafValues></_>
        <_>
          <internalNodes>
            0 -1 102 -2.4865756859071553e-04</internalNodes>
          <leafValues>
            5.5339145660400391e-01 -3.2370561361312866e-01</leafValues></_>
        <_>
          <internalNodes>
            0 -1 42 -1.7716453876346350e-03</internalNodes>
          <leafValues>
            5.8731204271316528e-01 -3.2015222311019897e-01</leafValues></_>
        <_>
          <internalNodes>
            0 -1 171 -3.0316892080008984e-03</internalNodes>
          <leafValues>
            1. -1.4408212900161743e-01</leafValues></_>
        <_>
          <internalNodes>
            0 -1 144 4.1031529690371826e-05</internalNodes>
          <leafValues>
            -2.6809608936309814e-01 5.5326479673385620e-01</leafValues></_>
        <_>
          <internalNodes>
            0 -1 97 2.6910647749900818e-02</internalNodes>
          <leafValues>
            -3.0385455489158630e-01 6.2350422143936157e-01</leafValues></_>
        <_>
          <internalNodes>
            0 -1 184 1.2771936599165201e-03</internalNodes>
          <leafValues>
            2.6900765299797058e-01 -7.2870647907257080e-01</leafValues></_></weakClassifiers></_>
    <!-- stage 18 -->
    <_>
      <maxWeakCount>8</maxWeakCount>
      <stageThreshold>-1.6667468547821045e+00</stageThreshold>
      <weakClassifiers>
        <_>
          <internalNodes>
            0 -1 48 1.4496492221951485e-03</internalNodes>
          <leafValues>
            -8.0668473243713379e-01 1.</leafValues></_>
        <_>
          <internalNodes>
            0 -1 101 -3.6736573092639446e-03</internalNodes>
          <leafValues>
            1. -5.2529567480087280e-01</leafValues></_>
        <_>
          <internalNodes>
            0 -1 145 -7.3150433308910578e-05</internalNodes>
          <leafValues>
            7.8477632999420166e-01 -3.1702736020088196e-01</leafValues></_>
        <_>
          <internalNodes>
            0 -1 165 9.4839016674086452e-04</internalNodes>
          <leafValues>
            4.4685980677604675e-01 -6.1061531305313110e-01</leafValues></_>
        <_>
          <internalNodes>
            0 -1 60 2.7894913218915462e-03</internalNodes>
          <leafValues>
            -4.2367541790008545e-01 8.2054185867309570e-01</leafValues></_>
        <_>
          <internalNodes>
            0 -1 95 3.2647141779307276e-05</internalNodes>
          <leafValues>
            7.5630587339401245e-01 -3.5562887787818909e-01</leafValues></_>
        <_>
          <internalNodes>
            0 -1 35 -1.8642222275957465e-03</internalNodes>
          <leafValues>
            1. -2.9768210649490356e-01</leafValues></_>
        <_>
          <internalNodes>
            0 -1 29 -1.8519608420319855e-04</internalNodes>
          <leafValues>
            -5.4996138811111450e-01 6.1238747835159302e-01</leafValues></_></weakClassifiers></_></stages>
  <features>
    <_>
      <rects>
        <_>
          0 0 1 6 -1.</_>
        <_>
          0 3 1 3 2.</_></rects>
      <tilted>0</tilted></_>
    <_>
      <rects>
        <_>
          0 0 2 22 -1.</_>
        <_>
          1 0 1 22 2.</_></rects>
      <tilted>0</tilted></_>
    <_>
      <rects>
        <_>
          0 0 4 6 -1.</_>
        <_>
          0 0 2 3 2.</_>
        <_>
          2 3 2 3 2.</_></rects>
      <tilted>0</tilted></_>
    <_>
      <rects>
        <_>
          0 0 12 1 -1.</_>
        <_>
          6 0 6 1 2.</_></rects>
      <tilted>0</tilted></_>
    <_>
      <rects>
        <_>
          0 0 14 1 -1.</_>
        <_>
          7 0 7 1 2.</_></rects>
      <tilted>0</tilted></_>
    <_>
      <rects>
        <_>
          0 0 24 1 -1.</_>
        <_>
          12 0 12 1 2.</_></rects>
      <tilted>0</tilted></_>
    <_>
      <rects>
        <_>
          0 0 17 2 -1.</_>
        <_>
          0 1 17 1 2.</_></rects>
      <tilted>0</tilted></_>
    <_>
      <rects>
        <_>
          0 0 20 2 -1.</_>
        <_>
          0 1 20 1 2.</_></rects>
      <tilted>0</tilted></_>
    <_>
      <rects>
        <_>
          0 0 21 2 -1.</_>
        <_>
          0 1 21 1 2.</_></rects>
      <tilted>0</tilted></_>
    <_>
      <rects>
        <_>
          0 1 1 12 -1.</_>
        <_>
          0 5 1 4 3.</_></rects>
      <tilted>0</tilted></_>
    <_>
      <rects>
        <_>
          0 1 2 7 -1.</_>
        <_>
          1 1 1 7 2.</_></rects>
      <tilted>0</tilted></_>
    <_>
      <rects>
        <_>
          0 1 2 8 -1.</_>
        <_>
          1 1 1 8 2.</_></rects>
      <tilted>0</tilted></_>
    <_>
      <rects>
        <_>
          0 2 2 12 -1.</_>
        <_>
          0 2 1 6 2.</_>
        <_>
          1 8 1 6 2.</_></rects>
      <tilted>0</tilted></_>
    <_>
      <rects>
        <_>
          0 2 2 22 -1.</_>
        <_>
          1 2 1 22 2.</_></rects>
      <tilted>0</tilted></_>
    <_>
      <rects>
        <_>
          0 2 18 20 -1.</_>
        <_>
          0 2 9 10 2.</_>
        <_>
          9 12 9 10 2.</_></rects>
      <tilted>0</tilted></_>
    <_>
      <rects>
        <_>
          0 2 11 9 -1.</_>
        <_>
          0 5 11 3 3.</_></rects>
      <tilted>0</tilted></_>
    <_>
      <rects>
        <_>
          0 5 24 18 -1.</_>
        <_>
          0 14 24 9 2.</_></rects>
      <tilted>0</tilted></_>
    <_>
      <rects>
        <_>
          0 6 1 4 -1.</_>
        <_>
          0 8 1 2 2.</_></rects>
      <tilted>0</tilted></_>
    <_>
      <rects>
        <_>
          0 7 1 12 -1.</_>
        <_>
          0 11 1 4 3.</_></rects>
      <tilted>0</tilted></_>
    <_>
      <rects>
        <_>
          0 8 2 1 -1.</_>
        <_>
          1 8 1 1 2.</_></rects>
      <tilted>0</tilted></_>
    <_>
      <rects>
        <_>
          0 8 18 8 -1.</_>
        <_>
          0 8 9 4 2.</_>
        <_>
          9 12 9 4 2.</_></rects>
      <tilted>0</tilted></_>
    <_>
      <rects>
        <_>
          0 9 2 1 -1.</_>
        <_>
          1 9 1 1 2.</_></rects>
      <tilted>0</tilted></_>
    <_>
      <rects>
        <_>
          0 9 1 2 -1.</_>
        <_>
          0 10 1 1 2.</_></rects>
      <tilted>0</tilted></_>
    <_>
      <rects>
        <_>
          0 10 1 2 -1.</_>
        <_>
          0 11 1 1 2.</_></rects>
      <tilted>0</tilted></_>
    <_>
      <rects>
        <_>
          0 10 12 9 -1.</_>
        <_>
          4 10 4 9 3.</_></rects>
      <tilted>0</tilted></_>
    <_>
      <rects>
        <_>
          0 10 14 6 -1.</_>
        <_>
          0 10 7 3 2.</_>
        <_>
          7 13 7 3 2.</_></rects>
      <tilted>0</tilted></_>
    <_>
      <rects>
        <_>
          0 10 22 9 -1.</_>
        <_>
          0 13 22 3 3.</_></rects>
      <tilted>0</tilted></_>
    <_>
      <rects>
        <_>
          0 11 18 3 -1.</_>
        <_>
          0 12 18 1 3.</_></rects>
      <tilted>0</tilted></_>
    <_>
      <rects>
        <_>
          0 12 1 4 -1.</_>
        <_>
          0 14 1 2 2.</_></rects>
      <tilted>0</tilted></_>
    <_>
      <rects>
        <_>
          0 12 1 10 -1.</_>
        <_>
          0 17 1 5 2.</_></rects>
      <tilted>0</tilted></_>
    <_>
      <rects>
        <_>
          0 12 6 2 -1.</_>
        <_>
          0 12 3 1 2.</_>
        <_>
          3 13 3 1 2.</_></rects>
      <tilted>0</tilted></_>
    <_>
      <rects>
        <_>
          0 13 1 2 -1.</_>
        <_>
          0 14 1 1 2.</_></rects>
      <tilted>0</tilted></_>
    <_>
      <rects>
        <_>
          0 13 1 3 -1.</_>
        <_>
          0 14 1 1 3.</_></rects>
      <tilted>0</tilted></_>
    <_>
      <rects>
        <_>
          0 13 1 6 -1.</_>
        <_>
          0 15 1 2 3.</_></rects>
      <tilted>0</tilted></_>
    <_>
      <rects>
        <_>
          0 14 2 8 -1.</_>
        <_>
          0 18 2 4 2.</_></rects>
      <tilted>0</tilted></_>
    <_>
      <rects>
        <_>
          0 14 7 4 -1.</_>
        <_>
          0 16 7 2 2.</_></rects>
      <tilted>0</tilted></_>
    <_>
      <rects>
        <_>
          0 15 24 9 -1.</_>
        <_>
          0 18 24 3 3.</_></rects>
      <tilted>0</tilted></_>
    <_>
      <rects>
        <_>
          0 18 1 3 -1.</_>
        <_>
          0 19 1 1 3.</_></rects>
      <tilted>0</tilted></_>
    <_>
      <rects>
        <_>
          0 20 4 2 -1.</_>
        <_>
          0 20 2 1 2.</_>
        <_>
          2 21 2 1 2.</_></rects>
      <tilted>0</tilted></_>
    <_>
      <rects>
        <_>
          0 20 24 4 -1.</_>
        <_>
          0 20 12 2 2.</_>
        <_>
          12 22 12 2 2.</_></rects>
      <tilted>0</tilted></_>
    <_>
      <rects>
        <_>
          0 22 1 2 -1.</_>
        <_>
          0 23 1 1 2.</_></rects>
      <tilted>0</tilted></_>
    <_>
      <rects>
        <_>
          1 0 3 1 -1.</_>
        <_>
          2 0 1 1 3.</_></rects>
      <tilted>0</tilted></_>
    <_>
      <rects>
        <_>
          1 0 4 18 -1.</_>
        <_>
          1 0 2 9 2.</_>
        <_>
          3 9 2 9 2.</_></rects>
      <tilted>0</tilted></_>
    <_>
      <rects>
        <_>
          1 0 10 4 -1.</_>
        <_>
          1 0 5 2 2.</_>
        <_>
          6 2 5 2 2.</_></rects>
      <tilted>0</tilted></_>
    <_>
      <rects>
        <_>
          1 0 12 1 -1.</_>
        <_>
          7 0 6 1 2.</_></rects>
      <tilted>0</tilted></_>
    <_>
      <rects>
        <_>
          1 0 20 18 -1.</_>
        <_>
          1 0 10 9 2.</_>
        <_>
          11 9 10 9 2.</_></rects>
      <tilted>0</tilted></_>
    <_>
      <rects>
        <_>
          1 0 23 18 -1.</_>
        <_>
          1 9 23 9 2.</_></rects>
      <tilted>0</tilted></_>
    <_>
      <rects>
        <_>
          1 1 4 2 -1.</_>
        <_>
          1 1 2 1 2.</_>
        <_>
          3 2 2 1 2.</_></rects>
      <tilted>0</tilted></_>
    <_>
      <rects>
        <_>
          1 5 1 12 -1.</_>
        <_>
          1 11 1 6 2.</_></rects>
      <tilted>0</tilted></_>
    <_>
      <rects>
        <_>
          1 8 12 10 -1.</_>
        <_>
          1 8 6 5 2.</_>
        <_>
          7 13 6 5 2.</_></rects>
      <tilted>0</tilted></_>
    <_>
      <rects>
        <_>
          1 9 13 3 -1.</_>
        <_>
          1 10 13 1 3.</_></rects>
      <tilted>0</tilted></_>
    <_>
      <rects>
        <_>
          1 18 1 3 -1.</_>
        <_>
          1 19 1 1 3.</_></rects>
      <tilted>0</tilted></_>
    <_>
      <rects>
        <_>
          1 20 22 4 -1.</_>
        <_>
          1 22 22 2 2.</_></rects>
      <tilted>0</tilted></_>
    <_>
      <rects>
        <_>
          1 23 6 1 -1.</_>
        <_>
          4 23 3 1 2.</_></rects>
      <tilted>0</tilted></_>
    <_>
      <rects>
        <_>
          2 0 14 2 -1.</_>
        <_>
          2 1 14 1 2.</_></rects>
      <tilted>0</tilted></_>
    <_>
      <rects>
        <_>
          2 0 16 6 -1.</_>
        <_>
          2 3 16 3 2.</_></rects>
      <tilted>0</tilted></_>
    <_>
      <rects>
        <_>
          2 1 2 10 -1.</_>
        <_>
          2 1 1 5 2.</_>
        <_>
          3 6 1 5 2.</_></rects>
      <tilted>0</tilted></_>
    <_>
      <rects>
        <_>
          2 1 18 22 -1.</_>
        <_>
          11 1 9 22 2.</_></rects>
      <tilted>0</tilted></_>
    <_>
      <rects>
        <_>
          2 4 11 4 -1.</_>
        <_>
          2 6 11 2 2.</_></rects>
      <tilted>0</tilted></_>
    <_>
      <rects>
        <_>
          2 5 2 10 -1.</_>
        <_>
          3 5 1 10 2.</_></rects>
      <tilted>0</tilted></_>
    <_>
      <rects>
        <_>
          2 5 2 12 -1.</_>
        <_>
          2 9 2 4 3.</_></rects>
      <tilted>0</tilted></_>
    <_>
      <rects>
        <_>
          2 8 2 10 -1.</_>
        <_>
          2 8 1 5 2.</_>
        <_>
          3 13 1 5 2.</_></rects>
      <tilted>0</tilted></_>
    <_>
      <rects>
        <_>
          2 8 9 2 -1.</_>
        <_>
          5 8 3 2 3.</_></rects>
      <tilted>0</tilted></_>
    <_>
      <rects>
        <_>
          2 8 6 6 -1.</_>
        <_>
          2 8 3 3 2.</_>
        <_>
          5 11 3 3 2.</_></rects>
      <tilted>0</tilted></_>
    <_>
      <rects>
        <_>
          2 12 2 9 -1.</_>
        <_>
          2 15 2 3 3.</_></rects>
      <tilted>0</tilted></_>
    <_>
      <rects>
        <_>
          2 15 16 6 -1.</_>
        <_>
          2 15 8 3 2.</_>
        <_>
          10 18 8 3 2.</_></rects>
      <tilted>0</tilted></_>
    <_>
      <rects>
        <_>
          2 17 21 4 -1.</_>
        <_>
          9 17 7 4 3.</_></rects>
      <tilted>0</tilted></_>
    <_>
      <rects>
        <_>
          2 18 2 4 -1.</_>
        <_>
          3 18 1 4 2.</_></rects>
      <tilted>0</tilted></_>
    <_>
      <rects>
        <_>
          2 20 18 2 -1.</_>
        <_>
          11 20 9 2 2.</_></rects>
      <tilted>0</tilted></_>
    <_>
      <rects>
        <_>
          2 22 6 2 -1.</_>
        <_>
          2 23 6 1 2.</_></rects>
      <tilted>0</tilted></_>
    <_>
      <rects>
        <_>
          3 0 15 1 -1.</_>
        <_>
          8 0 5 1 3.</_></rects>
      <tilted>0</tilted></_>
    <_>
      <rects>
        <_>
          3 4 14 16 -1.</_>
        <_>
          3 4 7 8 2.</_>
        <_>
          10 12 7 8 2.</_></rects>
      <tilted>0</tilted></_>
    <_>
      <rects>
        <_>
          3 9 6 8 -1.</_>
        <_>
          3 9 3 4 2.</_>
        <_>
          6 13 3 4 2.</_></rects>
      <tilted>0</tilted></_>
    <_>
      <rects>
        <_>
          3 15 2 3 -1.</_>
        <_>
          3 16 2 1 3.</_></rects>
      <tilted>0</tilted></_>
    <_>
      <rects>
        <_>
          3 18 19 6 -1.</_>
        <_>
          3 20 19 2 3.</_></rects>
      <tilted>0</tilted></_>
    <_>
      <rects>
        <_>
          3 19 15 2 -1.</_>
        <_>
          8 19 5 2 3.</_></rects>
      <tilted>0</tilted></_>
    <_>
      <rects>
        <_>
          4 0 14 1 -1.</_>
        <_>
          11 0 7 1 2.</_></rects>
      <tilted>0</tilted></_>
    <_>
      <rects>
        <_>
          4 1 3 4 -1.</_>
        <_>
          5 1 1 4 3.</_></rects>
      <tilted>0</tilted></_>
    <_>
      <rects>
        <_>
          4 1 15 3 -1.</_>
        <_>
          9 1 5 3 3.</_></rects>
      <tilted>0</tilted></_>
    <_>
      <rects>
        <_>
          4 2 2 8 -1.</_>
        <_>
          4 6 2 4 2.</_></rects>
      <tilted>0</tilted></_>
    <_>
      <rects>
        <_>
          4 4 19 2 -1.</_>
        <_>
          4 5 19 1 2.</_></rects>
      <tilted>0</tilted></_>
    <_>
      <rects>
        <_>
          4 7 16 15 -1.</_>
        <_>
          4 12 16 5 3.</_></rects>
      <tilted>0</tilted></_>
    <_>
      <rects>
        <_>
          4 9 4 4 -1.</_>
        <_>
          4 9 2 2 2.</_>
        <_>
          6 11 2 2 2.</_></rects>
      <tilted>0</tilted></_>
    <_>
      <rects>
        <_>
          4 9 6 6 -1.</_>
        <_>
          4 11 6 2 3.</_></rects>
      <tilted>0</tilted></_>
    <_>
      <rects>
        <_>
          4 10 10 4 -1.</_>
        <_>
          4 10 5 2 2.</_>
        <_>
          9 12 5 2 2.</_></rects>
      <tilted>0</tilted></_>
    <_>
      <rects>
        <_>
          4 21 17 3 -1.</_>
        <_>
          4 22 17 1 3.</_></rects>
      <tilted>0</tilted></_>
    <_>
      <rects>
        <_>
          4 23 12 1 -1.</_>
        <_>
          10 23 6 1 2.</_></rects>
      <tilted>0</tilted></_>
    <_>
      <rects>
        <_>
          5 0 9 2 -1.</_>
        <_>
          8 0 3 2 3.</_></rects>
      <tilted>0</tilted></_>
    <_>
      <rects>
        <_>
          5 0 13 2 -1.</_>
        <_>
          5 1 13 1 2.</_></rects>
      <tilted>0</tilted></_>
    <_>
      <rects>
        <_>
          5 4 4 6 -1.</_>
        <_>
          5 4 2 3 2.</_>
        <_>
          7 7 2 3 2.</_></rects>
      <tilted>0</tilted></_>
    <_>
      <rects>
        <_>
          5 4 15 20 -1.</_>
        <_>
          5 14 15 10 2.</_></rects>
      <tilted>0</tilted></_>
    <_>
      <rects>
        <_>
          5 4 16 14 -1.</_>
        <_>
          5 11 16 7 2.</_></rects>
      <tilted>0</tilted></_>
    <_>
      <rects>
        <_>
          5 12 18 1 -1.</_>
        <_>
          11 12 6 1 3.</_></rects>
      <tilted>0</tilted></_>
    <_>
      <rects>
        <_>
          5 12 15 6 -1.</_>
        <_>
          5 15 15 3 2.</_></rects>
      <tilted>0</tilted></_>
    <_>
      <rects>
        <_>
          5 15 4 4 -1.</_>
        <_>
          5 17 4 2 2.</_></rects>
      <tilted>0</tilted></_>
    <_>
      <rects>
        <_>
          5 17 8 1 -1.</_>
        <_>
          9 17 4 1 2.</_></rects>
      <tilted>0</tilted></_>
    <_>
      <rects>
        <_>
          5 18 15 1 -1.</_>
        <_>
          10 18 5 1 3.</_></rects>
      <tilted>0</tilted></_>
    <_>
      <rects>
        <_>
          5 20 18 4 -1.</_>
        <_>
          11 20 6 4 3.</_></rects>
      <tilted>0</tilted></_>
    <_>
      <rects>
        <_>
          6 0 2 1 -1.</_>
        <_>
          7 0 1 1 2.</_></rects>
      <tilted>0</tilted></_>
    <_>
      <rects>
        <_>
          6 0 12 1 -1.</_>
        <_>
          10 0 4 1 3.</_></rects>
      <tilted>0</tilted></_>
    <_>
      <rects>
        <_>
          6 0 18 1 -1.</_>
        <_>
          12 0 6 1 3.</_></rects>
      <tilted>0</tilted></_>
    <_>
      <rects>
        <_>
          6 1 8 2 -1.</_>
        <_>
          10 1 4 2 2.</_></rects>
      <tilted>0</tilted></_>
    <_>
      <rects>
        <_>
          6 2 6 5 -1.</_>
        <_>
          8 2 2 5 3.</_></rects>
      <tilted>0</tilted></_>
    <_>
      <rects>
        <_>
          6 3 8 4 -1.</_>
        <_>
          6 3 4 2 2.</_>
        <_>
          10 5 4 2 2.</_></rects>
      <tilted>0</tilted></_>
    <_>
      <rects>
        <_>
          6 6 13 18 -1.</_>
        <_>
          6 15 13 9 2.</_></rects>
      <tilted>0</tilted></_>
    <_>
      <rects>
        <_>
          6 12 8 3 -1.</_>
        <_>
          6 13 8 1 3.</_></rects>
      <tilted>0</tilted></_>
    <_>
      <rects>
        <_>
          6 15 13 6 -1.</_>
        <_>
          6 18 13 3 2.</_></rects>
      <tilted>0</tilted></_>
    <_>
      <rects>
        <_>
          6 16 18 4 -1.</_>
        <_>
          6 16 9 2 2.</_>
        <_>
          15 18 9 2 2.</_></rects>
      <tilted>0</tilted></_>
    <_>
      <rects>
        <_>
          6 17 12 4 -1.</_>
        <_>
          6 19 12 2 2.</_></rects>
      <tilted>0</tilted></_>
    <_>
      <rects>
        <_>
          6 18 18 2 -1.</_>
        <_>
          12 18 6 2 3.</_></rects>
      <tilted>0</tilted></_>
    <_>
      <rects>
        <_>
          6 23 10 1 -1.</_>
        <_>
          11 23 5 1 2.</_></rects>
      <tilted>0</tilted></_>
    <_>
      <rects>
        <_>
          7 0 3 1 -1.</_>
        <_>
          8 0 1 1 3.</_></rects>
      <tilted>0</tilted></_>
    <_>
      <rects>
        <_>
          7 2 16 8 -1.</_>
        <_>
          7 2 8 4 2.</_>
        <_>
          15 6 8 4 2.</_></rects>
      <tilted>0</tilted></_>
    <_>
      <rects>
        <_>
          7 3 6 7 -1.</_>
        <_>
          9 3 2 7 3.</_></rects>
      <tilted>0</tilted></_>
    <_>
      <rects>
        <_>
          7 4 6 16 -1.</_>
        <_>
          7 4 3 8 2.</_>
        <_>
          10 12 3 8 2.</_></rects>
      <tilted>0</tilted></_>
    <_>
      <rects>
        <_>
          7 4 9 20 -1.</_>
        <_>
          7 14 9 10 2.</_></rects>
      <tilted>0</tilted></_>
    <_>
      <rects>
        <_>
          7 8 9 3 -1.</_>
        <_>
          10 8 3 3 3.</_></rects>
      <tilted>0</tilted></_>
    <_>
      <rects>
        <_>
          7 11 11 8 -1.</_>
        <_>
          7 15 11 4 2.</_></rects>
      <tilted>0</tilted></_>
    <_>
      <rects>
        <_>
          7 12 4 10 -1.</_>
        <_>
          7 12 2 5 2.</_>
        <_>
          9 17 2 5 2.</_></rects>
      <tilted>0</tilted></_>
    <_>
      <rects>
        <_>
          7 20 3 1 -1.</_>
        <_>
          8 20 1 1 3.</_></rects>
      <tilted>0</tilted></_>
    <_>
      <rects>
        <_>
          8 0 2 1 -1.</_>
        <_>
          9 0 1 1 2.</_></rects>
      <tilted>0</tilted></_>
    <_>
      <rects>
        <_>
          8 0 12 1 -1.</_>
        <_>
          14 0 6 1 2.</_></rects>
      <tilted>0</tilted></_>
    <_>
      <rects>
        <_>
          8 6 7 8 -1.</_>
        <_>
          8 10 7 4 2.</_></rects>
      <tilted>0</tilted></_>
    <_>
      <rects>
        <_>
          8 19 1 3 -1.</_>
        <_>
          8 20 1 1 3.</_></rects>
      <tilted>0</tilted></_>
    <_>
      <rects>
        <_>
          9 0 3 19 -1.</_>
        <_>
          10 0 1 19 3.</_></rects>
      <tilted>0</tilted></_>
    <_>
      <rects>
        <_>
          9 0 10 1 -1.</_>
        <_>
          14 0 5 1 2.</_></rects>
      <tilted>0</tilted></_>
    <_>
      <rects>
        <_>
          9 0 9 6 -1.</_>
        <_>
          9 2 9 2 3.</_></rects>
      <tilted>0</tilted></_>
    <_>
      <rects>
        <_>
          9 0 10 4 -1.</_>
        <_>
          9 2 10 2 2.</_></rects>
      <tilted>0</tilted></_>
    <_>
      <rects>
        <_>
          9 7 11 3 -1.</_>
        <_>
          9 8 11 1 3.</_></rects>
      <tilted>0</tilted></_>
    <_>
      <rects>
        <_>
          9 8 2 4 -1.</_>
        <_>
          10 8 1 4 2.</_></rects>
      <tilted>0</tilted></_>
    <_>
      <rects>
        <_>
          9 16 3 4 -1.</_>
        <_>
          10 16 1 4 3.</_></rects>
      <tilted>0</tilted></_>
    <_>
      <rects>
        <_>
          9 23 4 1 -1.</_>
        <_>
          11 23 2 1 2.</_></rects>
      <tilted>0</tilted></_>
    <_>
      <rects>
        <_>
          10 0 6 1 -1.</_>
        <_>
          12 0 2 1 3.</_></rects>
      <tilted>0</tilted></_>
    <_>
      <rects>
        <_>
          10 0 10 4 -1.</_>
        <_>
          15 0 5 4 2.</_></rects>
      <tilted>0</tilted></_>
    <_>
      <rects>
        <_>
          10 0 12 1 -1.</_>
        <_>
          16 0 6 1 2.</_></rects>
      <tilted>0</tilted></_>
    <_>
      <rects>
        <_>
          10 0 8 2 -1.</_>
        <_>
          10 1 8 1 2.</_></rects>
      <tilted>0</tilted></_>
    <_>
      <rects>
        <_>
          10 1 5 6 -1.</_>
        <_>
          10 3 5 2 3.</_></rects>
      <tilted>0</tilted></_>
    <_>
      <rects>
        <_>
          10 6 4 2 -1.</_>
        <_>
          10 6 2 1 2.</_>
        <_>
          12 7 2 1 2.</_></rects>
      <tilted>0</tilted></_>
    <_>
      <rects>
        <_>
          10 6 3 8 -1.</_>
        <_>
          10 10 3 4 2.</_></rects>
      <tilted>0</tilted></_>
    <_>
      <rects>
        <_>
          10 7 3 4 -1.</_>
        <_>
          11 7 1 4 3.</_></rects>
      <tilted>0</tilted></_>
    <_>
      <rects>
        <_>
          10 8 2 4 -1.</_>
        <_>
          10 8 1 2 2.</_>
        <_>
          11 10 1 2 2.</_></rects>
      <tilted>0</tilted></_>
    <_>
      <rects>
        <_>
          10 8 7 3 -1.</_>
        <_>
          10 9 7 1 3.</_></rects>
      <tilted>0</tilted></_>
    <_>
      <rects>
        <_>
          10 10 6 2 -1.</_>
        <_>
          12 10 2 2 3.</_></rects>
      <tilted>0</tilted></_>
    <_>
      <rects>
        <_>
          10 22 1 2 -1.</_>
        <_>
          10 23 1 1 2.</_></rects>
      <tilted>0</tilted></_>
    <_>
      <rects>
        <_>
          11 1 2 4 -1.</_>
        <_>
          11 1 1 2 2.</_>
        <_>
          12 3 1 2 2.</_></rects>
      <tilted>0</tilted></_>
    <_>
      <rects>
        <_>
          11 4 3 3 -1.</_>
        <_>
          11 5 3 1 3.</_></rects>
      <tilted>0</tilted></_>
    <_>
      <rects>
        <_>
          11 7 5 2 -1.</_>
        <_>
          11 8 5 1 2.</_></rects>
      <tilted>0</tilted></_>
    <_>
      <rects>
        <_>
          11 8 12 3 -1.</_>
        <_>
          15 8 4 3 3.</_></rects>
      <tilted>0</tilted></_>
    <_>
      <rects>
        <_>
          11 9 3 1 -1.</_>
        <_>
          12 9 1 1 3.</_></rects>
      <tilted>0</tilted></_>
    <_>
      <rects>
        <_>
          11 10 2 2 -1.</_>
        <_>
          11 11 2 1 2.</_></rects>
      <tilted>0</tilted></_>
    <_>
      <rects>
        <_>
          11 11 6 3 -1.</_>
        <_>
          11 12 6 1 3.</_></rects>
      <tilted>0</tilted></_>
    <_>
      <rects>
        <_>
          11 19 3 3 -1.</_>
        <_>
          12 19 1 3 3.</_></rects>
      <tilted>0</tilted></_>
    <_>
      <rects>
        <_>
          11 22 4 2 -1.</_>
        <_>
          11 22 2 1 2.</_>
        <_>
          13 23 2 1 2.</_></rects>
      <tilted>0</tilted></_>
    <_>
      <rects>
        <_>
          11 22 3 2 -1.</_>
        <_>
          11 23 3 1 2.</_></rects>
      <tilted>0</tilted></_>
    <_>
      <rects>
        <_>
          12 0 3 9 -1.</_>
        <_>
          13 0 1 9 3.</_></rects>
      <tilted>0</tilted></_>
    <_>
      <rects>
        <_>
          12 0 2 3 -1.</_>
        <_>
          12 1 2 1 3.</_></rects>
      <tilted>0</tilted></_>
    <_>
      <rects>
        <_>
          12 4 12 18 -1.</_>
        <_>
          12 4 6 9 2.</_>
        <_>
          18 13 6 9 2.</_></rects>
      <tilted>0</tilted></_>
    <_>
      <rects>
        <_>
          12 8 3 7 -1.</_>
        <_>
          13 8 1 7 3.</_></rects>
      <tilted>0</tilted></_>
    <_>
      <rects>
        <_>
          12 9 4 4 -1.</_>
        <_>
          12 9 2 2 2.</_>
        <_>
          14 11 2 2 2.</_></rects>
      <tilted>0</tilted></_>
    <_>
      <rects>
        <_>
          12 11 12 10 -1.</_>
        <_>
          12 11 6 5 2.</_>
        <_>
          18 16 6 5 2.</_></rects>
      <tilted>0</tilted></_>
    <_>
      <rects>
        <_>
          12 14 5 4 -1.</_>
        <_>
          12 16 5 2 2.</_></rects>
      <tilted>0</tilted></_>
    <_>
      <rects>
        <_>
          12 15 10 8 -1.</_>
        <_>
          17 15 5 8 2.</_></rects>
      <tilted>0</tilted></_>
    <_>
      <rects>
        <_>
          12 18 1 6 -1.</_>
        <_>
          12 21 1 3 2.</_></rects>
      <tilted>0</tilted></_>
    <_>
      <rects>
        <_>
          12 19 2 1 -1.</_>
        <_>
          13 19 1 1 2.</_></rects>
      <tilted>0</tilted></_>
    <_>
      <rects>
        <_>
          12 21 4 2 -1.</_>
        <_>
          14 21 2 2 2.</_></rects>
      <tilted>0</tilted></_>
    <_>
      <rects>
        <_>
          12 22 4 2 -1.</_>
        <_>
          14 22 2 2 2.</_></rects>
      <tilted>0</tilted></_>
    <_>
      <rects>
        <_>
          12 23 3 1 -1.</_>
        <_>
          13 23 1 1 3.</_></rects>
      <tilted>0</tilted></_>
    <_>
      <rects>
        <_>
          13 0 1 6 -1.</_>
        <_>
          13 2 1 2 3.</_></rects>
      <tilted>0</tilted></_>
    <_>
      <rects>
        <_>
          13 0 8 1 -1.</_>
        <_>
          17 0 4 1 2.</_></rects>
      <tilted>0</tilted></_>
    <_>
      <rects>
        <_>
          13 3 4 2 -1.</_>
        <_>
          13 3 2 1 2.</_>
        <_>
          15 4 2 1 2.</_></rects>
      <tilted>0</tilted></_>
    <_>
      <rects>
        <_>
          13 5 2 4 -1.</_>
        <_>
          13 5 1 2 2.</_>
        <_>
          14 7 1 2 2.</_></rects>
      <tilted>0</tilted></_>
    <_>
      <rects>
        <_>
          13 8 2 6 -1.</_>
        <_>
          13 8 1 3 2.</_>
        <_>
          14 11 1 3 2.</_></rects>
      <tilted>0</tilted></_>
    <_>
      <rects>
        <_>
          13 19 7 3 -1.</_>
        <_>
          13 20 7 1 3.</_></rects>
      <tilted>0</tilted></_>
    <_>
      <rects>
        <_>
          14 2 6 1 -1.</_>
        <_>
          17 2 3 1 2.</_></rects>
      <tilted>0</tilted></_>
    <_>
      <rects>
        <_>
          14 4 3 13 -1.</_>
        <_>
          15 4 1 13 3.</_></rects>
      <tilted>0</tilted></_>
    <_>
      <rects>
        <_>
          14 19 2 2 -1.</_>
        <_>
          14 19 1 1 2.</_>
        <_>
          15 20 1 1 2.</_></rects>
      <tilted>0</tilted></_>
    <_>
      <rects>
        <_>
          14 20 3 3 -1.</_>
        <_>
          14 21 3 1 3.</_></rects>
      <tilted>0</tilted></_>
    <_>
      <rects>
        <_>
          14 23 10 1 -1.</_>
        <_>
          19 23 5 1 2.</_></rects>
      <tilted>0</tilted></_>
    <_>
      <rects>
        <_>
          15 0 9 23 -1.</_>
        <_>
          18 0 3 23 3.</_></rects>
      <tilted>0</tilted></_>
    <_>
      <rects>
        <_>
          15 11 2 6 -1.</_>
        <_>
          15 11 1 3 2.</_>
        <_>
          16 14 1 3 2.</_></rects>
      <tilted>0</tilted></_>
    <_>
      <rects>
        <_>
          15 17 8 2 -1.</_>
        <_>
          15 17 4 1 2.</_>
        <_>
          19 18 4 1 2.</_></rects>
      <tilted>0</tilted></_>
    <_>
      <rects>
        <_>
          16 4 8 14 -1.</_>
        <_>
          20 4 4 14 2.</_></rects>
      <tilted>0</tilted></_>
    <_>
      <rects>
        <_>
          16 5 6 2 -1.</_>
        <_>
          16 5 3 1 2.</_>
        <_>
          19 6 3 1 2.</_></rects>
      <tilted>0</tilted></_>
    <_>
      <rects>
        <_>
          16 6 8 18 -1.</_>
        <_>
          16 6 4 9 2.</_>
        <_>
          20 15 4 9 2.</_></rects>
      <tilted>0</tilted></_>
    <_>
      <rects>
        <_>
          16 10 2 1 -1.</_>
        <_>
          17 10 1 1 2.</_></rects>
      <tilted>0</tilted></_>
    <_>
      <rects>
        <_>
          16 17 6 3 -1.</_>
        <_>
          16 18 6 1 3.</_></rects>
      <tilted>0</tilted></_>
    <_>
      <rects>
        <_>
          17 4 2 3 -1.</_>
        <_>
          17 5 2 1 3.</_></rects>
      <tilted>0</tilted></_>
    <_>
      <rects>
        <_>
          17 8 1 3 -1.</_>
        <_>
          17 9 1 1 3.</_></rects>
      <tilted>0</tilted></_>
    <_>
      <rects>
        <_>
          18 2 6 18 -1.</_>
        <_>
          20 2 2 18 3.</_></rects>
      <tilted>0</tilted></_>
    <_>
      <rects>
        <_>
          18 3 4 20 -1.</_>
        <_>
          18 3 2 10 2.</_>
        <_>
          20 13 2 10 2.</_></rects>
      <tilted>0</tilted></_>
    <_>
      <rects>
        <_>
          18 6 6 4 -1.</_>
        <_>
          18 6 3 2 2.</_>
        <_>
          21 8 3 2 2.</_></rects>
      <tilted>0</tilted></_>
    <_>
      <rects>
        <_>
          18 18 4 3 -1.</_>
        <_>
          18 19 4 1 3.</_></rects>
      <tilted>0</tilted></_>
    <_>
      <rects>
        <_>
          18 21 6 2 -1.</_>
        <_>
          18 21 3 1 2.</_>
        <_>
          21 22 3 1 2.</_></rects>
      <tilted>0</tilted></_>
    <_>
      <rects>
        <_>
          19 5 2 10 -1.</_>
        <_>
          19 5 1 5 2.</_>
        <_>
          20 10 1 5 2.</_></rects>
      <tilted>0</tilted></_>
    <_>
      <rects>
        <_>
          19 5 5 9 -1.</_>
        <_>
          19 8 5 3 3.</_></rects>
      <tilted>0</tilted></_>
    <_>
      <rects>
        <_>
          19 10 4 3 -1.</_>
        <_>
          21 10 2 3 2.</_></rects>
      <tilted>0</tilted></_>
    <_>
      <rects>
        <_>
          19 22 4 2 -1.</_>
        <_>
          19 23 4 1 2.</_></rects>
      <tilted>0</tilted></_>
    <_>
      <rects>
        <_>
          20 6 4 13 -1.</_>
        <_>
          22 6 2 13 2.</_></rects>
      <tilted>0</tilted></_>
    <_>
      <rects>
        <_>
          20 9 4 9 -1.</_>
        <_>
          22 9 2 9 2.</_></rects>
      <tilted>0</tilted></_>
    <_>
      <rects>
        <_>
          20 19 2 3 -1.</_>
        <_>
          21 19 1 3 2.</_></rects>
      <tilted>0</tilted></_>
    <_>
      <rects>
        <_>
          20 23 3 1 -1.</_>
        <_>
          21 23 1 1 3.</_></rects>
      <tilted>0</tilted></_>
    <_>
      <rects>
        <_>
          21 0 3 1 -1.</_>
        <_>
          22 0 1 1 3.</_></rects>
      <tilted>0</tilted></_>
    <_>
      <rects>
        <_>
          21 12 2 2 -1.</_>
        <_>
          21 12 1 1 2.</_>
        <_>
          22 13 1 1 2.</_></rects>
      <tilted>0</tilted></_>
    <_>
      <rects>
        <_>
          21 22 3 2 -1.</_>
        <_>
          22 22 1 2 3.</_></rects>
      <tilted>0</tilted></_>
    <_>
      <rects>
        <_>
          21 23 3 1 -1.</_>
        <_>
          22 23 1 1 3.</_></rects>
      <tilted>0</tilted></_>
    <_>
      <rects>
        <_>
          22 0 2 20 -1.</_>
        <_>
          23 0 1 20 2.</_></rects>
      <tilted>0</tilted></_>
    <_>
      <rects>
        <_>
          22 1 1 6 -1.</_>
        <_>
          22 3 1 2 3.</_></rects>
      <tilted>0</tilted></_>
    <_>
      <rects>
        <_>
          22 3 1 18 -1.</_>
        <_>
          22 9 1 6 3.</_></rects>
      <tilted>0</tilted></_>
    <_>
      <rects>
        <_>
          22 4 2 10 -1.</_>
        <_>
          22 4 1 5 2.</_>
        <_>
          23 9 1 5 2.</_></rects>
      <tilted>0</tilted></_>
    <_>
      <rects>
        <_>
          22 6 2 8 -1.</_>
        <_>
          22 6 1 4 2.</_>
        <_>
          23 10 1 4 2.</_></rects>
      <tilted>0</tilted></_>
    <_>
      <rects>
        <_>
          22 8 2 12 -1.</_>
        <_>
          22 8 1 6 2.</_>
        <_>
          23 14 1 6 2.</_></rects>
      <tilted>0</tilted></_>
    <_>
      <rects>
        <_>
          22 9 2 12 -1.</_>
        <_>
          22 9 1 6 2.</_>
        <_>
          23 15 1 6 2.</_></rects>
      <tilted>0</tilted></_>
    <_>
      <rects>
        <_>
          22 15 2 8 -1.</_>
        <_>
          23 15 1 8 2.</_></rects>
      <tilted>0</tilted></_>
    <_>
      <rects>
        <_>
          22 16 2 5 -1.</_>
        <_>
          23 16 1 5 2.</_></rects>
      <tilted>0</tilted></_>
    <_>
      <rects>
        <_>
          22 17 2 2 -1.</_>
        <_>
          22 18 2 1 2.</_></rects>
      <tilted>0</tilted></_>
    <_>
      <rects>
        <_>
          22 19 1 3 -1.</_>
        <_>
          22 20 1 1 3.</_></rects>
      <tilted>0</tilted></_>
    <_>
      <rects>
        <_>
          23 0 1 3 -1.</_>
        <_>
          23 1 1 1 3.</_></rects>
      <tilted>0</tilted></_>
    <_>
      <rects>
        <_>
          23 0 1 24 -1.</_>
        <_>
          23 8 1 8 3.</_></rects>
      <tilted>0</tilted></_>
    <_>
      <rects>
        <_>
          23 3 1 21 -1.</_>
        <_>
          23 10 1 7 3.</_></rects>
      <tilted>0</tilted></_>
    <_>
      <rects>
        <_>
          23 5 1 9 -1.</_>
        <_>
          23 8 1 3 3.</_></rects>
      <tilted>0</tilted></_>
    <_>
      <rects>
        <_>
          23 5 1 8 -1.</_>
        <_>
          23 9 1 4 2.</_></rects>
      <tilted>0</tilted></_>
    <_>
      <rects>
        <_>
          23 8 1 2 -1.</_>
        <_>
          23 9 1 1 2.</_></rects>
      <tilted>0</tilted></_>
    <_>
      <rects>
        <_>
          23 8 1 6 -1.</_>
        <_>
          23 11 1 3 2.</_></rects>
      <tilted>0</tilted></_>
    <_>
      <rects>
        <_>
          23 9 1 4 -1.</_>
        <_>
          23 11 1 2 2.</_></rects>
      <tilted>0</tilted></_>
    <_>
      <rects>
        <_>
          23 9 1 8 -1.</_>
        <_>
          23 13 1 4 2.</_></rects>
      <tilted>0</tilted></_>
    <_>
      <rects>
        <_>
          23 10 1 14 -1.</_>
        <_>
          23 17 1 7 2.</_></rects>
      <tilted>0</tilted></_>
    <_>
      <rects>
        <_>
          23 11 1 2 -1.</_>
        <_>
          23 12 1 1 2.</_></rects>
      <tilted>0</tilted></_>
    <_>
      <rects>
        <_>
          23 12 1 2 -1.</_>
        <_>
          23 13 1 1 2.</_></rects>
      <tilted>0</tilted></_>
    <_>
      <rects>
        <_>
          23 16 1 3 -1.</_>
        <_>
          23 17 1 1 3.</_></rects>
      <tilted>0</tilted></_>
    <_>
      <rects>
        <_>
          23 17 1 3 -1.</_>
        <_>
          23 18 1 1 3.</_></rects>
      <tilted>0</tilted></_></features></cascade>
</opencv_storage>
