<?xml version="1.0"?>
<opencv_storage>
<cascade>
  <stageType>BOOST</stageType>
  <featureType>HAAR</featureType>
  <height>24</height>
  <width>24</width>
  <stageParams>
    <boostType>GAB</boostType>
    <minHitRate>9.9500000476837158e-01</minHitRate>
    <maxFalseAlarm>5.0000000000000000e-01</maxFalseAlarm>
    <weightTrimRate>9.4999998807907104e-01</weightTrimRate>
    <maxDepth>1</maxDepth>
    <maxWeakCount>100</maxWeakCount></stageParams>
  <featureParams>
    <maxCatCount>0</maxCatCount>
    <featSize>1</featSize>
    <mode>BASIC</mode></featureParams>
  <stageNum>13</stageNum>
  <stages>
    <!-- stage 0 -->
    <_>
      <maxWeakCount>3</maxWeakCount>
      <stageThreshold>-1.5640261173248291e+00</stageThreshold>
      <weakClassifiers>
        <_>
          <internalNodes>
            0 -1 34 -1.2569324672222137e-01</internalNodes>
          <leafValues>
            2.9729729890823364e-01 -9.4100296497344971e-01</leafValues></_>
        <_>
          <internalNodes>
            0 -1 14 -5.4203841835260391e-02</internalNodes>
          <leafValues>
            3.0723923444747925e-01 -7.5901913642883301e-01</leafValues></_>
        <_>
          <internalNodes>
            0 -1 32 4.4207939936313778e-05</internalNodes>
          <leafValues>
            2.1578931808471680e-01 -9.3026244640350342e-01</leafValues></_></weakClassifiers></_>
    <!-- stage 1 -->
    <_>
      <maxWeakCount>4</maxWeakCount>
      <stageThreshold>-1.6277717351913452e+00</stageThreshold>
      <weakClassifiers>
        <_>
          <internalNodes>
            0 -1 4 -1.4634680747985840e-01</internalNodes>
          <leafValues>
            3.9999999105930328e-02 -9.4422310590744019e-01</leafValues></_>
        <_>
          <internalNodes>
            0 -1 32 -4.1295461414847523e-05</internalNodes>
          <leafValues>
            -8.7147450447082520e-01 7.5575284659862518e-02</leafValues></_>
        <_>
          <internalNodes>
            0 -1 45 -1.1331939458614215e-04</internalNodes>
          <leafValues>
            -9.5854246616363525e-01 1.0654950141906738e-01</leafValues></_>
        <_>
          <internalNodes>
            0 -1 49 2.9571752747870050e-05</internalNodes>
          <leafValues>
            1.9941851496696472e-01 -9.7911703586578369e-01</leafValues></_></weakClassifiers></_>
    <!-- stage 2 -->
    <_>
      <maxWeakCount>4</maxWeakCount>
      <stageThreshold>-1.8036046028137207e+00</stageThreshold>
      <weakClassifiers>
        <_>
          <internalNodes>
            0 -1 25 7.6996169984340668e-02</internalNodes>
          <leafValues>
            -9.2478305101394653e-01 7.6470589637756348e-01</leafValues></_>
        <_>
          <internalNodes>
            0 -1 20 -5.9039466083049774e-02</internalNodes>
          <leafValues>
            7.0377504825592041e-01 -7.4439704418182373e-01</leafValues></_>
        <_>
          <internalNodes>
            0 -1 49 -1.2248263374203816e-05</internalNodes>
          <leafValues>
            -7.5312662124633789e-01 3.7489384412765503e-01</leafValues></_>
        <_>
          <internalNodes>
            0 -1 35 1.2449491769075394e-03</internalNodes>
          <leafValues>
            -5.0931835174560547e-01 7.0334148406982422e-01</leafValues></_></weakClassifiers></_>
    <!-- stage 3 -->
    <_>
      <maxWeakCount>4</maxWeakCount>
      <stageThreshold>-1.4340656995773315e+00</stageThreshold>
      <weakClassifiers>
        <_>
          <internalNodes>
            0 -1 18 1.2792384624481201e-01</internalNodes>
          <leafValues>
            -9.1938579082489014e-01 1.</leafValues></_>
        <_>
          <internalNodes>
            0 -1 31 -4.1251825168728828e-03</internalNodes>
          <leafValues>
            2.2245611250400543e-01 -8.0872136354446411e-01</leafValues></_>
        <_>
          <internalNodes>
            0 -1 43 2.5896655279211700e-04</internalNodes>
          <leafValues>
            2.0183496177196503e-01 -9.6565562486648560e-01</leafValues></_>
        <_>
          <internalNodes>
            0 -1 12 9.2707079602405429e-05</internalNodes>
          <leafValues>
            2.2851955890655518e-01 -9.1282206773757935e-01</leafValues></_></weakClassifiers></_>
    <!-- stage 4 -->
    <_>
      <maxWeakCount>4</maxWeakCount>
      <stageThreshold>-1.4216746091842651e+00</stageThreshold>
      <weakClassifiers>
        <_>
          <internalNodes>
            0 -1 40 8.9672610163688660e-02</internalNodes>
          <leafValues>
            -9.1930836439132690e-01 8.4615385532379150e-01</leafValues></_>
        <_>
          <internalNodes>
            0 -1 13 -3.4608528017997742e-02</internalNodes>
          <leafValues>
            2.7467724680900574e-01 -7.5092381238937378e-01</leafValues></_>
        <_>
          <internalNodes>
            0 -1 7 2.4043926969170570e-03</internalNodes>
          <leafValues>
            1.4223362505435944e-01 -9.8718917369842529e-01</leafValues></_>
        <_>
          <internalNodes>
            0 -1 0 -2.3286574287340045e-04</internalNodes>
          <leafValues>
            -9.1927719116210938e-01 1.7596948146820068e-01</leafValues></_></weakClassifiers></_>
    <!-- stage 5 -->
    <_>
      <maxWeakCount>5</maxWeakCount>
      <stageThreshold>-1.5797069072723389e+00</stageThreshold>
      <weakClassifiers>
        <_>
          <internalNodes>
            0 -1 33 1.4193585515022278e-01</internalNodes>
          <leafValues>
            -9.1938579082489014e-01 1.</leafValues></_>
        <_>
          <internalNodes>
            0 -1 21 -1.0595373809337616e-01</internalNodes>
          <leafValues>
            5.8490765094757080e-01 -7.2154200077056885e-01</leafValues></_>
        <_>
          <internalNodes>
            0 -1 19 -1.6557708382606506e-02</internalNodes>
          <leafValues>
            4.0120103955268860e-01 -7.0649808645248413e-01</leafValues></_>
        <_>
          <internalNodes>
            0 -1 1 2.4869568733265623e-05</internalNodes>
          <leafValues>
            2.7189871668815613e-01 -8.1823629140853882e-01</leafValues></_>
        <_>
          <internalNodes>
            0 -1 37 5.0580239621922374e-04</internalNodes>
          <leafValues>
            -5.0328528881072998e-01 4.9582028388977051e-01</leafValues></_></weakClassifiers></_>
    <!-- stage 6 -->
    <_>
      <maxWeakCount>3</maxWeakCount>
      <stageThreshold>-1.6559064388275146e+00</stageThreshold>
      <weakClassifiers>
        <_>
          <internalNodes>
            0 -1 38 -1.3654964976012707e-02</internalNodes>
          <leafValues>
            6.0000002384185791e-01 -9.1915303468704224e-01</leafValues></_>
        <_>
          <internalNodes>
            0 -1 7 -1.4456303688348271e-05</internalNodes>
          <leafValues>
            -8.8658469915390015e-01 1.6399373998865485e-03</leafValues></_>
        <_>
          <internalNodes>
            0 -1 3 -9.3635969096794724e-04</internalNodes>
          <leafValues>
            -9.7797352075576782e-01 1.4983126521110535e-01</leafValues></_></weakClassifiers></_>
    <!-- stage 7 -->
    <_>
      <maxWeakCount>4</maxWeakCount>
      <stageThreshold>-1.6046741008758545e+00</stageThreshold>
      <weakClassifiers>
        <_>
          <internalNodes>
            0 -1 16 1.8737697601318359e-01</internalNodes>
          <leafValues>
            -9.1915303468704224e-01 6.0000002384185791e-01</leafValues></_>
        <_>
          <internalNodes>
            0 -1 3 2.1123705664649606e-04</internalNodes>
          <leafValues>
            5.8269567787647247e-02 -8.4378868341445923e-01</leafValues></_>
        <_>
          <internalNodes>
            0 -1 22 -1.7649875371716917e-04</internalNodes>
          <leafValues>
            -8.7329792976379395e-01 1.6739243268966675e-01</leafValues></_>
        <_>
          <internalNodes>
            0 -1 6 -1.0394192941021174e-04</internalNodes>
          <leafValues>
            -9.1118299961090088e-01 2.4124088883399963e-01</leafValues></_></weakClassifiers></_>
    <!-- stage 8 -->
    <_>
      <maxWeakCount>4</maxWeakCount>
      <stageThreshold>-1.2049145698547363e+00</stageThreshold>
      <weakClassifiers>
        <_>
          <internalNodes>
            0 -1 44 -1.5035288408398628e-02</internalNodes>
          <leafValues>
            8.1818181276321411e-01 -9.1562801599502563e-01</leafValues></_>
        <_>
          <internalNodes>
            0 -1 41 1.9214091822504997e-02</internalNodes>
          <leafValues>
            -6.4151805639266968e-01 7.2382259368896484e-01</leafValues></_>
        <_>
          <internalNodes>
            0 -1 26 -8.6426283814944327e-05</internalNodes>
          <leafValues>
            -9.3635064363479614e-01 1.8946447968482971e-01</leafValues></_>
        <_>
          <internalNodes>
            0 -1 23 1.2123057786084246e-05</internalNodes>
          <leafValues>
            1.6276697814464569e-01 -9.7309356927871704e-01</leafValues></_></weakClassifiers></_>
    <!-- stage 9 -->
    <_>
      <maxWeakCount>5</maxWeakCount>
      <stageThreshold>-1.7853918075561523e+00</stageThreshold>
      <weakClassifiers>
        <_>
          <internalNodes>
            0 -1 42 5.3938083350658417e-02</internalNodes>
          <leafValues>
            -9.1746640205383301e-01 8.3333331346511841e-01</leafValues></_>
        <_>
          <internalNodes>
            0 -1 17 -2.3126348853111267e-01</internalNodes>
          <leafValues>
            -1.7169826896861196e-03 -7.9317545890808105e-01</leafValues></_>
        <_>
          <internalNodes>
            0 -1 5 -1.2471954524517059e-01</internalNodes>
          <leafValues>
            -9.4978296756744385e-01 1.0821672528982162e-01</leafValues></_>
        <_>
          <internalNodes>
            0 -1 10 -7.8751280670985579e-04</internalNodes>
          <leafValues>
            4.7464099526405334e-01 -4.6099042892456055e-01</leafValues></_>
        <_>
          <internalNodes>
            0 -1 9 -1.4348699551192112e-05</internalNodes>
          <leafValues>
            -8.4896063804626465e-01 2.7802371978759766e-01</leafValues></_></weakClassifiers></_>
    <!-- stage 10 -->
    <_>
      <maxWeakCount>5</maxWeakCount>
      <stageThreshold>-1.3334417343139648e+00</stageThreshold>
      <weakClassifiers>
        <_>
          <internalNodes>
            0 -1 15 6.8237438797950745e-02</internalNodes>
          <leafValues>
            -9.1754555702209473e-01 1.</leafValues></_>
        <_>
          <internalNodes>
            0 -1 29 -1.3129802048206329e-01</internalNodes>
          <leafValues>
            6.2171798944473267e-01 -6.7839902639389038e-01</leafValues></_>
        <_>
          <internalNodes>
            0 -1 39 6.4323794504161924e-05</internalNodes>
          <leafValues>
            -4.7264978289604187e-01 4.9174791574478149e-01</leafValues></_>
        <_>
          <internalNodes>
            0 -1 8 7.2267903306055814e-05</internalNodes>
          <leafValues>
            2.6748964190483093e-01 -9.7805166244506836e-01</leafValues></_>
        <_>
          <internalNodes>
            0 -1 36 -2.1682647056877613e-03</internalNodes>
          <leafValues>
            5.0157922506332397e-01 -4.9673479795455933e-01</leafValues></_></weakClassifiers></_>
    <!-- stage 11 -->
    <_>
      <maxWeakCount>5</maxWeakCount>
      <stageThreshold>-1.7864804267883301e+00</stageThreshold>
      <weakClassifiers>
        <_>
          <internalNodes>
            0 -1 30 -1.2376893311738968e-02</internalNodes>
          <leafValues>
            1. -9.2678225040435791e-01</leafValues></_>
        <_>
          <internalNodes>
            0 -1 11 6.8410611711442471e-03</internalNodes>
          <leafValues>
            -8.0396389961242676e-01 1.0458380728960037e-01</leafValues></_>
        <_>
          <internalNodes>
            0 -1 48 -3.0129458173178136e-04</internalNodes>
          <leafValues>
            -7.7459371089935303e-01 2.9031312465667725e-01</leafValues></_>
        <_>
          <internalNodes>
            0 -1 24 -1.1627421190496534e-04</internalNodes>
          <leafValues>
            4.0288361907005310e-01 -6.6436451673507690e-01</leafValues></_>
        <_>
          <internalNodes>
            0 -1 46 -1.9540014909580350e-04</internalNodes>
          <leafValues>
            -9.4134747982025146e-01 3.1831723451614380e-01</leafValues></_></weakClassifiers></_>
    <!-- stage 12 -->
    <_>
      <maxWeakCount>4</maxWeakCount>
      <stageThreshold>-1.9295061826705933e+00</stageThreshold>
      <weakClassifiers>
        <_>
          <internalNodes>
            0 -1 27 -2.8001330792903900e-02</internalNodes>
          <leafValues>
            1. -9.4552528858184814e-01</leafValues></_>
        <_>
          <internalNodes>
            0 -1 2 2.0665682852268219e-02</internalNodes>
          <leafValues>
            -8.4975963830947876e-01 6.6934657096862793e-01</leafValues></_>
        <_>
          <internalNodes>
            0 -1 28 4.1211834177374840e-03</internalNodes>
          <leafValues>
            -6.2572973966598511e-01 6.8916624784469604e-01</leafValues></_>
        <_>
          <internalNodes>
            0 -1 47 4.4626685848925263e-05</internalNodes>
          <leafValues>
            4.9150848388671875e-01 -8.5105949640274048e-01</leafValues></_></weakClassifiers></_></stages>
  <features>
    <_>
      <rects>
        <_>
          0 0 1 15 -1.</_>
        <_>
          0 5 1 5 3.</_></rects>
      <tilted>0</tilted></_>
    <_>
      <rects>
        <_>
          0 0 6 8 -1.</_>
        <_>
          0 4 6 4 2.</_></rects>
      <tilted>0</tilted></_>
    <_>
      <rects>
        <_>
          0 4 6 20 -1.</_>
        <_>
          0 4 3 10 2.</_>
        <_>
          3 14 3 10 2.</_></rects>
      <tilted>0</tilted></_>
    <_>
      <rects>
        <_>
          0 6 1 18 -1.</_>
        <_>
          0 12 1 6 3.</_></rects>
      <tilted>0</tilted></_>
    <_>
      <rects>
        <_>
          0 9 24 4 -1.</_>
        <_>
          8 9 8 4 3.</_></rects>
      <tilted>0</tilted></_>
    <_>
      <rects>
        <_>
          0 9 20 6 -1.</_>
        <_>
          10 9 10 6 2.</_></rects>
      <tilted>0</tilted></_>
    <_>
      <rects>
        <_>
          0 20 9 2 -1.</_>
        <_>
          0 21 9 1 2.</_></rects>
      <tilted>0</tilted></_>
    <_>
      <rects>
        <_>
          0 23 21 1 -1.</_>
        <_>
          7 23 7 1 3.</_></rects>
      <tilted>0</tilted></_>
    <_>
      <rects>
        <_>
          1 13 1 6 -1.</_>
        <_>
          1 16 1 3 2.</_></rects>
      <tilted>0</tilted></_>
    <_>
      <rects>
        <_>
          1 15 2 9 -1.</_>
        <_>
          1 18 2 3 3.</_></rects>
      <tilted>0</tilted></_>
    <_>
      <rects>
        <_>
          2 2 18 2 -1.</_>
        <_>
          2 3 18 1 2.</_></rects>
      <tilted>0</tilted></_>
    <_>
      <rects>
        <_>
          2 4 6 20 -1.</_>
        <_>
          2 4 3 10 2.</_>
        <_>
          5 14 3 10 2.</_></rects>
      <tilted>0</tilted></_>
    <_>
      <rects>
        <_>
          2 18 6 5 -1.</_>
        <_>
          4 18 2 5 3.</_></rects>
      <tilted>0</tilted></_>
    <_>
      <rects>
        <_>
          3 5 10 8 -1.</_>
        <_>
          3 5 5 4 2.</_>
        <_>
          8 9 5 4 2.</_></rects>
      <tilted>0</tilted></_>
    <_>
      <rects>
        <_>
          4 11 15 3 -1.</_>
        <_>
          9 11 5 3 3.</_></rects>
      <tilted>0</tilted></_>
    <_>
      <rects>
        <_>
          4 12 8 8 -1.</_>
        <_>
          4 12 4 4 2.</_>
        <_>
          8 16 4 4 2.</_></rects>
      <tilted>0</tilted></_>
    <_>
      <rects>
        <_>
          5 6 12 14 -1.</_>
        <_>
          5 6 6 7 2.</_>
        <_>
          11 13 6 7 2.</_></rects>
      <tilted>0</tilted></_>
    <_>
      <rects>
        <_>
          6 0 11 24 -1.</_>
        <_>
          6 8 11 8 3.</_></rects>
      <tilted>0</tilted></_>
    <_>
      <rects>
        <_>
          6 6 12 10 -1.</_>
        <_>
          6 6 6 5 2.</_>
        <_>
          12 11 6 5 2.</_></rects>
      <tilted>0</tilted></_>
    <_>
      <rects>
        <_>
          6 7 18 7 -1.</_>
        <_>
          12 7 6 7 3.</_></rects>
      <tilted>0</tilted></_>
    <_>
      <rects>
        <_>
          6 9 12 8 -1.</_>
        <_>
          6 9 6 4 2.</_>
        <_>
          12 13 6 4 2.</_></rects>
      <tilted>0</tilted></_>
    <_>
      <rects>
        <_>
          6 9 14 10 -1.</_>
        <_>
          6 9 7 5 2.</_>
        <_>
          13 14 7 5 2.</_></rects>
      <tilted>0</tilted></_>
    <_>
      <rects>
        <_>
          6 22 12 1 -1.</_>
        <_>
          10 22 4 1 3.</_></rects>
      <tilted>0</tilted></_>
    <_>
      <rects>
        <_>
          7 1 3 2 -1.</_>
        <_>
          7 2 3 1 2.</_></rects>
      <tilted>0</tilted></_>
    <_>
      <rects>
        <_>
          7 7 6 13 -1.</_>
        <_>
          10 7 3 13 2.</_></rects>
      <tilted>0</tilted></_>
    <_>
      <rects>
        <_>
          7 8 10 8 -1.</_>
        <_>
          7 8 5 4 2.</_>
        <_>
          12 12 5 4 2.</_></rects>
      <tilted>0</tilted></_>
    <_>
      <rects>
        <_>
          8 0 1 4 -1.</_>
        <_>
          8 2 1 2 2.</_></rects>
      <tilted>0</tilted></_>
    <_>
      <rects>
        <_>
          8 5 10 7 -1.</_>
        <_>
          13 5 5 7 2.</_></rects>
      <tilted>0</tilted></_>
    <_>
      <rects>
        <_>
          8 8 4 10 -1.</_>
        <_>
          8 8 2 5 2.</_>
        <_>
          10 13 2 5 2.</_></rects>
      <tilted>0</tilted></_>
    <_>
      <rects>
        <_>
          8 8 12 10 -1.</_>
        <_>
          8 8 6 5 2.</_>
        <_>
          14 13 6 5 2.</_></rects>
      <tilted>0</tilted></_>
    <_>
      <rects>
        <_>
          9 5 6 6 -1.</_>
        <_>
          9 5 3 3 2.</_>
        <_>
          12 8 3 3 2.</_></rects>
      <tilted>0</tilted></_>
    <_>
      <rects>
        <_>
          9 9 6 4 -1.</_>
        <_>
          9 9 3 2 2.</_>
        <_>
          12 11 3 2 2.</_></rects>
      <tilted>0</tilted></_>
    <_>
      <rects>
        <_>
          10 0 4 2 -1.</_>
        <_>
          12 0 2 2 2.</_></rects>
      <tilted>0</tilted></_>
    <_>
      <rects>
        <_>
          10 3 10 12 -1.</_>
        <_>
          10 3 5 6 2.</_>
        <_>
          15 9 5 6 2.</_></rects>
      <tilted>0</tilted></_>
    <_>
      <rects>
        <_>
          10 4 5 15 -1.</_>
        <_>
          10 9 5 5 3.</_></rects>
      <tilted>0</tilted></_>
    <_>
      <rects>
        <_>
          10 9 2 4 -1.</_>
        <_>
          10 9 1 2 2.</_>
        <_>
          11 11 1 2 2.</_></rects>
      <tilted>0</tilted></_>
    <_>
      <rects>
        <_>
          11 3 2 16 -1.</_>
        <_>
          11 3 1 8 2.</_>
        <_>
          12 11 1 8 2.</_></rects>
      <tilted>0</tilted></_>
    <_>
      <rects>
        <_>
          11 10 3 5 -1.</_>
        <_>
          12 10 1 5 3.</_></rects>
      <tilted>0</tilted></_>
    <_>
      <rects>
        <_>
          12 6 6 1 -1.</_>
        <_>
          15 6 3 1 2.</_></rects>
      <tilted>0</tilted></_>
    <_>
      <rects>
        <_>
          12 13 2 4 -1.</_>
        <_>
          13 13 1 4 2.</_></rects>
      <tilted>0</tilted></_>
    <_>
      <rects>
        <_>
          13 2 8 10 -1.</_>
        <_>
          13 2 4 5 2.</_>
        <_>
          17 7 4 5 2.</_></rects>
      <tilted>0</tilted></_>
    <_>
      <rects>
        <_>
          13 10 6 4 -1.</_>
        <_>
          13 10 3 2 2.</_>
        <_>
          16 12 3 2 2.</_></rects>
      <tilted>0</tilted></_>
    <_>
      <rects>
        <_>
          14 3 8 6 -1.</_>
        <_>
          14 3 4 3 2.</_>
        <_>
          18 6 4 3 2.</_></rects>
      <tilted>0</tilted></_>
    <_>
      <rects>
        <_>
          14 22 10 1 -1.</_>
        <_>
          19 22 5 1 2.</_></rects>
      <tilted>0</tilted></_>
    <_>
      <rects>
        <_>
          17 1 1 6 -1.</_>
        <_>
          17 4 1 3 2.</_></rects>
      <tilted>0</tilted></_>
    <_>
      <rects>
        <_>
          20 10 4 11 -1.</_>
        <_>
          22 10 2 11 2.</_></rects>
      <tilted>0</tilted></_>
    <_>
      <rects>
        <_>
          22 2 1 6 -1.</_>
        <_>
          22 5 1 3 2.</_></rects>
      <tilted>0</tilted></_>
    <_>
      <rects>
        <_>
          22 4 2 6 -1.</_>
        <_>
          22 6 2 2 3.</_></rects>
      <tilted>0</tilted></_>
    <_>
      <rects>
        <_>
          22 5 1 14 -1.</_>
        <_>
          22 12 1 7 2.</_></rects>
      <tilted>0</tilted></_>
    <_>
      <rects>
        <_>
          23 16 1 3 -1.</_>
        <_>
          23 17 1 1 3.</_></rects>
      <tilted>0</tilted></_></features></cascade>
</opencv_storage>
